{"learner":{"attributes":{"best_iteration":"49","best_score":"0.02452531"},"feature_names":[],"feature_types":[],"gradient_booster":{"model":{"gbtree_model_param":{"num_parallel_tree":"1","num_trees":"50","size_leaf_vector":"0"},"tree_info":[0,0,0,0,0,0,0,0,0,0,0,0,0,0,0,0,0,0,0,0,0,0,0,0,0,0,0,0,0,0,0,0,0,0,0,0,0,0,0,0,0,0,0,0,0,0,0,0,0,0],"trees":[{"base_weights":[-9.9737394E-1,-1.3425746E0,1.159636E0,6.2589926E-1,-1.6176293E0,-1.9061278E0,1.9790503E0,-1.9503106E0,1.9933994E0,-1.1245248E0,-1.9992857E-1,-1.9734749E-1,1.5294118E-1,-1.3333334E-1,1.9901961E-1,-0E0,-1.9584199E0,5E-2,1.9955899E-1,-1.6982005E0,1.9939117E-1,-1.9744137E-1,-1.1428572E0,-8.180575E-1,-1.9765166E0,-1.9873418E-1,8.9E-1,-1.6363637E-1,4.0000003E-2,-1.8662791E-1,1.1311054E-2,-1.984214E-1,-9.52381E-2,-1.0230179E-2,1.522095E-1],"categories":[],"categories_nodes":[],"categories_segments":[],"categories_sizes":[],"default_left":[0,0,1,0,0,0,0,0,1,1,0,0,0,0,0,0,1,0,0,0,0,0,0,1,1,0,0,0,0,0,0,0,0,0,0],"id":0,"left_children":[1,3,5,7,9,11,13,15,17,19,-1,-1,-1,-1,-1,-1,21,-1,-1,23,25,-1,27,29,31,-1,33,-1,-1,-1,-1,-1,-1,-1,-1],"loss_changes":[4.8926567E3,3.0671758E3,2.2816465E3,2.4523499E3,9.329004E2,4.7384094E1,2.9087646E1,3.819519E0,4.8901367E-1,1.6486396E3,0E0,0E0,0E0,0E0,0E0,0E0,8.8061523E-1,0E0,0E0,3.6931055E2,9.939551E2,0E0,5.984415E0,3.5696478E2,7.173828E0,0E0,3.137702E2,0E0,0E0,0E0,0E0,0E0,0E0,0E0,0E0],"parents":[2147483647,0,0,1,1,2,2,3,3,4,4,5,5,6,6,7,7,8,8,9,9,16,16,19,19,20,20,22,22,23,23,24,24,26,26],"right_children":[2,4,6,8,10,12,14,16,18,20,-1,-1,-1,-1,-1,-1,22,-1,-1,24,26,-1,28,30,32,-1,34,-1,-1,-1,-1,-1,-1,-1,-1],"split_conditions":[4.1425955E-1,5.1339846E0,1.8191297E-1,6.7131676E1,4.1068335E0,4.9673935E1,5.4025216E0,1.3841876E-3,5.0256385E-5,1.7186759E-2,-1.9992857E-1,-1.9734749E-1,1.5294118E-1,-1.3333334E-1,1.9901961E-1,-0E0,1.1057223E-1,5E-2,1.9955899E-1,3.6197364E-2,1.295075E0,-1.9744137E-1,2.8842762E-1,3.748422E-4,1.6730895E-2,-1.9873418E-1,3.975952E-2,-1.6363637E-1,4.0000003E-2,-1.8662791E-1,1.1311054E-2,-1.984214E-1,-9.52381E-2,-1.0230179E-2,1.522095E-1],"split_indices":[0,7,1,4,5,0,8,0,1,1,0,0,0,0,0,0,1,0,0,0,2,0,2,1,1,0,1,0,0,0,0,0,0,0,0],"split_type":[0,0,0,0,0,0,0,0,0,0,0,0,0,0,0,0,0,0,0,0,0,0,0,0,0,0,0,0,0,0,0,0,0,0,0],"sum_hessian":[6.56775E3,5.662E3,9.0575E2,6.94E2,4.968E3,1.9075E2,7.15E2,2.405E2,4.535E2,2.16925E3,2.79875E3,1.875E2,3.25E0,2E0,7.13E2,1E0,2.395E2,1E0,4.525E2,1.51325E3,6.56E2,2.335E2,6E0,3.645E2,1.14875E3,1.57E2,4.99E2,4.5E0,1.5E0,1.71E2,1.935E2,1.13925E3,9.5E0,1.945E2,3.045E2],"tree_param":{"num_deleted":"0","num_feature":"9","num_nodes":"35","size_leaf_vector":"0"}},{"base_weights":[-9.0627974E-1,-1.2451357E0,9.0324414E-1,6.032225E-1,-1.4869269E0,-1.7552718E0,1.7576885E0,-1.7730643E0,1.8127142E-1,-1.0501925E0,-1.8181296E-1,-1.8025152E-1,1.4190052E-1,-1.6509762E-1,1.8004925E0,-0E0,-1.7813616E-1,-1.5381864E0,1.1855239E-1,-2.0900574E-2,1.8040095E-1,-7.4974936E-1,-1.8019056E0,-1.8081185E-1,7.691443E-1,-1.6990308E-1,9.30798E-3,-1.80652E-1,-1.0963092E-1,-1.5872365E-2,1.2978661E-1],"categories":[],"categories_nodes":[],"categories_segments":[],"categories_sizes":[],"default_left":[0,0,1,0,0,0,0,0,0,1,0,0,0,0,0,0,0,0,0,0,0,1,1,0,0,0,0,0,0,0,0],"id":1,"left_children":[1,3,5,7,9,11,13,15,-1,17,-1,-1,-1,-1,19,-1,-1,21,23,-1,-1,25,27,-1,29,-1,-1,-1,-1,-1,-1],"loss_changes":[3.992477E3,2.4513916E3,2.3366118E3,1.8282817E3,6.995029E2,4.0102966E1,1.16474365E2,3.1584473E0,0E0,1.194323E3,0E0,0E0,0E0,0E0,5.8103027E0,0E0,0E0,3.057754E2,7.7558734E2,0E0,0E0,2.9774133E2,1.6206055E0,0E0,2.2706537E2,0E0,0E0,0E0,0E0,0E0,0E0],"parents":[2147483647,0,0,1,1,2,2,3,3,4,4,5,5,6,6,7,7,9,9,14,14,17,17,18,18,21,21,22,22,24,24],"right_children":[2,4,6,8,10,12,14,16,-1,18,-1,-1,-1,-1,20,-1,-1,22,24,-1,-1,26,28,-1,30,-1,-1,-1,-1,-1,-1],"split_conditions":[3.4531996E-1,5.1339846E0,1.5585515E-1,6.7131676E1,4.1068335E0,4.9673935E1,5.4025216E0,1.3841876E-3,1.8127142E-1,1.7186759E-2,-1.8181296E-1,-1.8025152E-1,1.4190052E-1,-1.6509762E-1,1.3107955E-1,-0E0,-1.7813616E-1,3.7153617E-2,1.295075E0,-2.0900574E-2,1.8040095E-1,3.8284482E-4,1.6730895E-2,-1.8081185E-1,3.5750214E-2,-1.6990308E-1,9.30798E-3,-1.80652E-1,-1.0963092E-1,-1.5872365E-2,1.2978661E-1],"split_indices":[0,7,1,4,5,0,8,0,0,1,0,0,0,0,2,0,0,0,2,0,0,1,1,0,1,0,0,0,0,0,0],"split_type":[0,0,0,0,0,0,0,0,0,0,0,0,0,0,0,0,0,0,0,0,0,0,0,0,0,0,0,0,0,0,0],"sum_hessian":[6.5083945E3,5.4821123E3,1.026282E3,6.340051E2,4.8481074E3,2.4936235E2,7.769196E2,2.136943E2,4.2031085E2,2.0927332E3,2.755374E3,2.4613129E2,3.2310686E0,9.169169E0,7.677505E2,1E0,2.126943E2,1.4760938E3,6.166395E2,1.2392969E0,7.6651117E2,3.7094083E2,1.1051528E3,1.552124E2,4.614271E2,1.7397562E2,1.9696521E2,1.0964227E3,8.730188E0,1.6774562E2,2.936815E2],"tree_param":{"num_deleted":"0","num_feature":"9","num_nodes":"31","size_leaf_vector":"0"}},{"base_weights":[-8.3651984E-1,-1.1496128E0,8.343404E-1,5.5732834E-1,-1.3720572E0,-1.622096E0,1.6250485E0,-1.6388311E0,1.6770111E-1,-9.6598047E-1,-1.6820447E-1,-1.6663924E-1,1.3273071E-1,-1.533628E-1,1.6648281E0,-0E0,-1.6467037E0,-1.4171243E0,1.0580833E-1,-1.9748172E-2,1.6681693E-1,-1.658884E-1,-9.7457904E-1,-6.980021E-1,-1.6716021E-1,-1.6731092E-1,6.9711506E-1,-1.3775443E-1,3.4616534E-2,-1.5720811E-1,7.845435E-3,-5.299732E-3,1.2615143E-1],"categories":[],"categories_nodes":[],"categories_segments":[],"categories_sizes":[],"default_left":[0,0,1,0,0,0,0,0,0,1,0,0,0,0,0,0,1,0,0,0,0,0,0,1,0,0,0,0,0,0,0,0,0],"id":2,"left_children":[1,3,5,7,9,11,13,15,-1,17,-1,-1,-1,-1,19,-1,21,23,25,-1,-1,-1,27,29,-1,-1,31,-1,-1,-1,-1,-1,-1],"loss_changes":[3.3261436E3,2.033521E3,1.9521066E3,1.5222693E3,5.9461914E2,3.420813E1,9.801904E1,2.6986694E0,0E0,9.9277356E2,0E0,0E0,0E0,0E0,5.001709E0,0E0,8.7524414E-2,2.6323413E2,6.4182623E2,0E0,0E0,0E0,3.7390566E0,2.575877E2,0E0,0E0,1.9389113E2,0E0,0E0,0E0,0E0,0E0,0E0],"parents":[2147483647,0,0,1,1,2,2,3,3,4,4,5,5,6,6,7,7,9,9,14,14,16,16,17,17,18,18,22,22,23,23,26,26],"right_children":[2,4,6,8,10,12,14,16,-1,18,-1,-1,-1,-1,20,-1,22,24,26,-1,-1,-1,28,30,-1,-1,32,-1,-1,-1,-1,-1,-1],"split_conditions":[3.4405336E-1,5.1339846E0,1.5534773E-1,6.7131676E1,4.1068335E0,4.9673935E1,5.4025216E0,1.3859652E-3,1.6770111E-1,1.7186759E-2,-1.6820447E-1,-1.6663924E-1,1.3273071E-1,-1.533628E-1,1.3107955E-1,-0E0,1.09708086E-1,3.8348652E-2,1.295075E0,-1.9748172E-2,1.6681693E-1,-1.658884E-1,3.0418248E0,3.8284482E-4,-1.6716021E-1,-1.6731092E-1,4.06048E-2,-1.3775443E-1,3.4616534E-2,-1.5720811E-1,7.845435E-3,-5.299732E-3,1.2615143E-1],"split_indices":[0,7,1,4,5,0,8,0,0,1,0,0,0,0,2,0,1,0,2,0,0,0,3,1,0,0,1,0,0,0,0,0,0],"split_type":[0,0,0,0,0,0,0,0,0,0,0,0,0,0,0,0,0,0,0,0,0,0,0,0,0,0,0,0,0,0,0,0,0],"sum_hessian":[6.3552695E3,5.3525903E3,1.00267926E3,6.169422E2,4.735648E3,2.4390517E2,7.587741E2,2.0817044E2,4.0877173E2,2.0518657E3,2.6837822E3,2.4072478E2,3.180379E0,8.96988E0,7.4980426E2,1E0,2.0717044E2,1.4438075E3,6.080583E2,1.2388315E0,7.485654E2,2.0204095E2,5.1294847E0,3.7835812E2,1.0654493E3,1.5123766E2,4.5682065E2,3.8973725E0,1.2321122E0,1.7750784E2,2.0085028E2,1.9652974E2,2.602909E2],"tree_param":{"num_deleted":"0","num_feature":"9","num_nodes":"33","size_leaf_vector":"0"}},{"base_weights":[-7.812445E-1,-1.0736479E0,7.7771246E-1,5.2214044E-1,-1.2805139E0,-1.5182962E0,1.5205935E0,-1.5339831E0,1.5714784E0,-8.9671516E-1,-1.5763704E-1,-1.5602787E-1,1.2497177E-1,-1.4420292E-1,1.559046E0,-0E0,-1.5416454E0,5.519203E-2,1.5737759E-1,-1.3210585E0,9.3881935E-2,-1.8661395E-2,1.5622923E-1,-1.5532939E-1,-9.093045E-1,-6.16204E-1,-1.55952E0,-1.5679963E-1,6.308648E-1,-1.2958486E-1,3.263984E-2,3.4592946E-3,-1.5666707E-1,-5.5742335E-2,-1.5628867E-1,-1.3523551E-2,1.0990085E-1],"categories":[],"categories_nodes":[],"categories_segments":[],"categories_sizes":[],"default_left":[0,0,1,0,0,0,0,0,1,1,0,0,0,0,0,0,1,0,0,0,0,0,0,0,0,0,0,0,0,0,0,0,0,0,0,0,0],"id":3,"left_children":[1,3,5,7,9,11,13,15,17,19,-1,-1,-1,-1,21,-1,23,-1,-1,25,27,-1,-1,-1,29,31,33,-1,35,-1,-1,-1,-1,-1,-1,-1,-1],"loss_changes":[2.799091E3,1.7071992E3,1.656992E3,1.2838867E3,5.182529E2,2.9566956E1,8.58042E1,2.3648682E0,5.3710938E-2,8.385255E2,0E0,0E0,0E0,0E0,4.397461E0,0E0,6.222534E-2,0E0,0E0,2.3375073E2,5.3561993E2,0E0,0E0,0E0,3.304769E0,2.1943066E2,2.6472168E0,0E0,1.6279483E2,0E0,0E0,0E0,0E0,0E0,0E0,0E0,0E0],"parents":[2147483647,0,0,1,1,2,2,3,3,4,4,5,5,6,6,7,7,8,8,9,9,14,14,16,16,19,19,20,20,24,24,25,25,26,26,28,28],"right_children":[2,4,6,8,10,12,14,16,18,20,-1,-1,-1,-1,22,-1,24,-1,-1,26,28,-1,-1,-1,30,32,34,-1,36,-1,-1,-1,-1,-1,-1,-1,-1],"split_conditions":[3.4286964E-1,5.1339846E0,1.541757E-1,6.7131676E1,4.1068335E0,4.9673935E1,5.4025216E0,1.3868222E-3,5.729868E-5,1.7069757E-2,-1.5763704E-1,-1.5602787E-1,1.2497177E-1,-1.4420292E-1,1.3053833E-1,-0E0,1.11828566E-1,5.519203E-2,1.5737759E-1,3.6197364E-2,1.2908492E0,-1.8661395E-2,1.5622923E-1,-1.5532939E-1,3.0418248E0,1.6411277E-2,1.55334035E-2,-1.5679963E-1,3.6213085E-2,-1.2958486E-1,3.263984E-2,3.4592946E-3,-1.5666707E-1,-5.5742335E-2,-1.5628867E-1,-1.3523551E-2,1.0990085E-1],"split_indices":[0,7,1,4,5,0,8,0,1,1,0,0,0,0,2,0,1,0,0,0,2,0,0,0,3,1,4,0,1,0,0,0,0,0,0,0,0],"split_type":[0,0,0,0,0,0,0,0,0,0,0,0,0,0,0,0,0,0,0,0,0,0,0,0,0,0,0,0,0,0,0,0,0,0,0,0,0],"sum_hessian":[6.1376245E3,5.168512E3,9.691124E2,5.9294464E2,4.5755674E3,2.3665215E2,7.3246027E2,2.002004E2,3.9274423E2,1.9935171E3,2.5820503E3,2.3354626E2,3.1058717E0,8.917271E0,7.23543E2,1E0,1.992004E2,1.4254355E0,3.9131882E2,1.3954241E3,5.980931E2,1.2381498E0,7.223049E2,1.9416714E2,5.0332537E0,3.5365628E2,1.0417678E3,1.4559117E2,4.5250192E2,3.7968693E0,1.2363842E0,2.1049274E2,1.4316354E2,4.045968E0,1.0377218E3,1.7190184E2,2.806001E2],"tree_param":{"num_deleted":"0","num_feature":"9","num_nodes":"37","size_leaf_vector":"0"}},{"base_weights":[-7.361639E-1,-1.0113949E0,7.3436564E-1,4.937057E-1,-1.2053427E0,-1.434814E0,1.4368217E0,-1.4496609E0,1.487433E0,-8.3812416E-1,-1.4922276E-1,-1.4752547E-1,1.1829902E-1,-1.3664578E-1,1.4743689E0,-0E0,-1.4572499E0,5.2361865E-2,1.4896616E-1,-1.2409766E0,8.405453E-2,-1.763616E-2,1.4775798E-1,-1.4906023E-1,-1.1659151E0,-5.741023E-1,-1.4805077E-1,-1.484084E-1,5.7352656E-1,-1.258849E-1,3.078639E-2,-1.4342819E-1,4.3655913E-3,-1.0825148E-3,1.12455964E-1],"categories":[],"categories_nodes":[],"categories_segments":[],"categories_sizes":[],"default_left":[0,0,1,0,0,0,0,0,1,1,0,0,0,0,0,0,0,0,0,0,0,0,0,0,1,1,0,0,0,0,0,0,0,0,0],"id":4,"left_children":[1,3,5,7,9,11,13,15,17,19,-1,-1,-1,-1,21,-1,23,-1,-1,25,27,-1,-1,-1,29,31,-1,-1,33,-1,-1,-1,-1,-1,-1],"loss_changes":[2.380187E3,1.4463037E3,1.4152599E3,1.095297E3,4.6097168E2,2.581601E1,7.580652E1,2.1125183E0,2.557373E-2,7.158451E2,0E0,0E0,0E0,0E0,3.9298096E0,0E0,1.1819458E-1,0E0,0E0,2.1334546E2,4.511707E2,0E0,0E0,0E0,3.7038612E0,1.8923116E2,0E0,0E0,1.442176E2,0E0,0E0,0E0,0E0,0E0,0E0],"parents":[2147483647,0,0,1,1,2,2,3,3,4,4,5,5,6,6,7,7,8,8,9,9,14,14,16,16,19,19,20,20,24,24,25,25,28,28],"right_children":[2,4,6,8,10,12,14,16,18,20,-1,-1,-1,-1,22,-1,24,-1,-1,26,28,-1,-1,-1,30,32,-1,-1,34,-1,-1,-1,-1,-1,-1],"split_conditions":[3.417509E-1,5.1339846E0,1.5187901E-1,6.7131676E1,4.1068335E0,4.9673935E1,5.4025216E0,1.4100347E-3,5.729868E-5,1.7000088E-2,-1.4922276E-1,-1.4752547E-1,1.1829902E-1,-1.3664578E-1,1.3015215E-1,-0E0,7.2911575E1,5.2361865E-2,1.4896616E-1,3.7153617E-2,1.2908492E0,-1.763616E-2,1.4775798E-1,-1.4906023E-1,1.1057223E-1,1.3060258E-4,-1.4805077E-1,-1.484084E-1,4.528617E-2,-1.258849E-1,3.078639E-2,-1.4342819E-1,4.3655913E-3,-1.0825148E-3,1.12455964E-1],"split_indices":[0,7,1,4,5,0,8,0,1,1,0,0,0,0,2,0,3,0,0,0,2,0,0,0,1,1,0,0,1,0,0,0,0,0,0],"split_type":[0,0,0,0,0,0,0,0,0,0,0,0,0,0,0,0,0,0,0,0,0,0,0,0,0,0,0,0,0,0,0,0,0,0,0],"sum_hessian":[5.8780137E3,4.951568E3,9.264456E2,5.6504913E2,4.3865186E3,2.2637097E2,7.0007465E2,1.9102174E2,3.740274E2,1.9256144E3,2.4609043E3,2.2335693E2,3.014037E0,8.785113E0,6.9128955E2,1E0,1.9002174E2,1.4072269E0,3.7262018E2,1.3399247E3,5.8568976E2,1.2372901E0,6.9005225E2,1.6680879E2,2.3212955E1,3.5499277E2,9.849319E2,1.3884268E2,4.4684708E2,2.19732E1,1.239756E0,1.4782973E2,2.0716302E2,2.173428E2,2.2950427E2],"tree_param":{"num_deleted":"0","num_feature":"9","num_nodes":"35","size_leaf_vector":"0"}},{"base_weights":[-6.985768E-1,-9.598468E-1,6.931734E-1,4.730748E-1,-1.1427544E0,-1.3672836E0,1.3685519E0,-1.380068E0,1.4190722E0,-7.881917E-1,-1.4239042E-1,-1.4060706E-1,1.1247738E-1,-1.3029288E-1,1.4054E0,-0E0,-1.3877385E0,4.9711265E-2,1.4212929E-1,-1.1720654E0,7.3772505E-2,-1.6668698E-2,1.4086123E-1,-1.4213118E-1,-1.100174E0,-5.292411E-1,-1.4113925E-1,-1.4157604E-1,5.225027E-1,-1.19193606E-1,2.9046861E-2,-1.3673641E-1,3.737855E-3,1.4895098E-2,1.3092194E-1],"categories":[],"categories_nodes":[],"categories_segments":[],"categories_sizes":[],"default_left":[0,0,1,0,0,0,0,0,1,1,0,0,0,0,0,0,0,0,0,0,0,0,0,0,1,1,0,0,0,0,0,0,0,0,0],"id":5,"left_children":[1,3,5,7,9,11,13,15,17,19,-1,-1,-1,-1,21,-1,23,-1,-1,25,27,-1,-1,-1,29,31,-1,-1,33,-1,-1,-1,-1,-1,-1],"loss_changes":[2.0345029E3,1.2349004E3,1.232913E3,9.3779114E2,4.1524414E2,2.2738678E1,6.746509E1,1.9151611E0,1.8127441E-2,6.1205005E2,0E0,0E0,0E0,0E0,3.5584717E0,0E0,1.7330933E-1,0E0,0E0,1.9612317E2,3.8226782E2,0E0,0E0,0E0,3.3112469E0,1.6568175E2,0E0,0E0,1.2893294E2,0E0,0E0,0E0,0E0,0E0,0E0],"parents":[2147483647,0,0,1,1,2,2,3,3,4,4,5,5,6,6,7,7,8,8,9,9,14,14,16,16,19,19,20,20,24,24,25,25,28,28],"right_children":[2,4,6,8,10,12,14,16,18,20,-1,-1,-1,-1,22,-1,24,-1,-1,26,28,-1,-1,-1,30,32,-1,-1,34,-1,-1,-1,-1,-1,-1],"split_conditions":[3.3865526E-1,5.1339846E0,1.4923844E-1,6.7131676E1,4.1068335E0,4.9673935E1,5.4025216E0,1.4100347E-3,5.729868E-5,1.7000088E-2,-1.4239042E-1,-1.4060706E-1,1.1247738E-1,-1.3029288E-1,1.3011177E-1,-0E0,7.2911575E1,4.9711265E-2,1.4212929E-1,3.7153617E-2,1.2892796E0,-1.6668698E-2,1.4086123E-1,-1.4213118E-1,1.0913542E-1,1.05314335E-4,-1.4113925E-1,-1.4157604E-1,6.978388E-2,-1.19193606E-1,2.9046861E-2,-1.3673641E-1,3.737855E-3,1.4895098E-2,1.3092194E-1],"split_indices":[0,7,1,4,5,0,8,0,1,1,0,0,0,0,2,0,3,0,0,0,2,0,0,0,1,1,0,0,1,0,0,0,0,0,0],"split_type":[0,0,0,0,0,0,0,0,0,0,0,0,0,0,0,0,0,0,0,0,0,0,0,0,0,0,0,0,0,0,0,0,0,0,0],"sum_hessian":[5.5922666E3,4.708636E3,8.8363074E2,5.328257E2,4.1758105E3,2.1788345E2,6.6574725E2,1.7991869E2,3.52907E2,1.8484729E3,2.3273374E3,2.1497333E2,2.9101245E0,8.59033E0,6.571569E2,1E0,1.7891869E2,1.3883353E0,3.5151868E2,1.2786635E3,5.6980945E2,1.2362857E0,6.5592065E2,1.5668329E2,2.2235397E1,3.4777182E2,9.3089166E2,1.3141853E2,4.383909E2,2.0993052E1,1.242346E0,1.3970789E2,2.0806395E2,2.9805612E2,1.4033478E2],"tree_param":{"num_deleted":"0","num_feature":"9","num_nodes":"35","size_leaf_vector":"0"}},{"base_weights":[-6.664784E-1,-8.92978E-1,7.9227513E-1,4.247459E-1,-1.0733144E0,-1.3058637E0,1.3520314E0,-1.3259732E0,1.3632293E0,-7.183948E-1,-1.3676375E-1,-1.3582109E-1,1.0733276E-1,-8.892549E-2,1.3602863E-1,-0E0,-1.332868E0,1.3658606E-1,2.2124829E-2,-1.082058E0,2.0731677E-1,-1.3454683E0,-7.442023E-1,-4.9625328E-1,-1.3780724E0,-1.3595182E-1,6.7596465E-1,-7.476412E-2,-1.3556771E-1,-1.1950024E-1,4.7663525E-2,-1.0204283E-1,4.2479686E-2,-1.3528487E-1,-1.8302946E-1,3.0214837E-2,1.3112654E-1],"categories":[],"categories_nodes":[],"categories_segments":[],"categories_sizes":[],"default_left":[0,0,1,0,0,0,0,0,0,1,0,0,0,0,0,0,1,0,0,0,0,0,0,1,1,0,0,0,0,0,0,0,0,0,0,0,0],"id":6,"left_children":[1,3,5,7,9,11,13,15,17,19,-1,-1,-1,-1,-1,-1,21,-1,-1,23,25,27,29,31,33,-1,35,-1,-1,-1,-1,-1,-1,-1,-1,-1,-1],"loss_changes":[1.7501201E3,1.0896667E3,8.381416E2,9.0955457E2,4.2021338E2,2.0200104E1,1.1619873E1,1.7673645E0,7.8009033E-1,6.162832E2,0E0,0E0,0E0,0E0,0E0,0E0,4.2514038E-1,0E0,0E0,2.2717346E2,3.8053354E2,1.2799072E-1,4.019147E0,2.1414404E2,7.4744873E0,0E0,9.426994E1,0E0,0E0,0E0,0E0,0E0,0E0,0E0,0E0,0E0,0E0],"parents":[2147483647,0,0,1,1,2,2,3,3,4,4,5,5,6,6,7,7,8,8,9,9,16,16,19,19,20,20,21,21,22,22,23,23,24,24,26,26],"right_children":[2,4,6,8,10,12,14,16,18,20,-1,-1,-1,-1,-1,-1,22,-1,-1,24,26,28,30,32,34,-1,36,-1,-1,-1,-1,-1,-1,-1,-1,-1,-1],"split_conditions":[4.178649E-1,5.1339846E0,1.8964544E-1,6.7131676E1,4.1068335E0,4.9673935E1,5.4025216E0,1.4145944E-3,1.8964544E-1,2.273317E-2,-1.3676375E-1,-1.3582109E-1,1.0733276E-1,-8.892549E-2,1.3602863E-1,-0E0,1.1057223E-1,1.3658606E-1,2.2124829E-2,4.9570557E-2,1.2892796E0,8.328352E-3,3.0181697E-1,5.286408E-3,1.6988259E-2,-1.3595182E-1,7.768239E-2,-7.476412E-2,-1.3556771E-1,-1.1950024E-1,4.7663525E-2,-1.0204283E-1,4.2479686E-2,-1.3528487E-1,-1.8302946E-1,3.0214837E-2,1.3112654E-1],"split_indices":[0,7,1,4,5,0,8,0,1,1,0,0,0,0,0,0,1,0,0,0,2,0,2,1,1,0,1,0,0,0,0,0,0,0,0,0,0],"split_type":[0,0,0,0,0,0,0,0,0,0,0,0,0,0,0,0,0,0,0,0,0,0,0,0,0,0,0,0,0,0,0,0,0,0,0,0,0],"sum_hessian":[5.293718E3,4.5825728E3,7.111449E2,5.514866E2,4.0310862E3,1.4948737E2,5.6165753E2,1.9231482E2,3.5917175E2,1.8289839E3,2.2021023E3,1.4668903E2,2.7983384E0,1.6694388E0,5.599881E2,1E0,1.9131482E2,3.5815045E2,1.0212994E0,1.3130049E3,5.1597906E2,1.8604692E2,5.267909E0,4.4165604E2,8.713488E2,1.1836093E2,3.9761816E2,4.3700614E0,1.8167685E2,3.862737E0,1.4051722E0,2.8140112E2,1.6025491E2,8.290955E2,4.2253273E1,2.5125388E2,1.4636429E2],"tree_param":{"num_deleted":"0","num_feature":"9","num_nodes":"37","size_leaf_vector":"0"}},{"base_weights":[-6.38271E-1,-8.554086E-1,7.6151365E-1,4.0898982E-1,-1.0262382E0,-1.2579073E0,1.3042866E0,-1.2766607E0,1.3157299E0,-6.7899793E-1,-1.3205455E-1,-1.309019E-1,1.0273395E-1,-8.544781E-2,1.3124791E-1,-0E0,-1.2837622E0,4.14878E-2,1.3180399E-1,-1.0634096E0,1.1229453E-1,-8.6941123E-1,-1.3057798E-1,-4.4558892E-1,-1.3068774E-1,-1.315591E-1,4.7931916E-1,-1.0266375E-1,1.0028276E-2,3.4718753E-3,-1.301929E-1,1.0633986E-2,1.18105985E-1],"categories":[],"categories_nodes":[],"categories_segments":[],"categories_sizes":[],"default_left":[0,0,1,0,0,0,0,0,1,1,0,0,0,0,0,0,0,0,0,0,0,0,0,0,0,0,0,0,0,0,0,0,0],"id":7,"left_children":[1,3,5,7,9,11,13,15,17,19,-1,-1,-1,-1,-1,-1,21,-1,-1,23,25,27,-1,29,-1,-1,31,-1,-1,-1,-1,-1,-1],"loss_changes":[1.5186235E3,9.343921E2,7.3734094E2,7.89419E2,3.8842944E2,1.8012207E1,1.0486084E1,1.6389465E0,1.515503E-1,5.3234937E2,0E0,0E0,0E0,0E0,0E0,0E0,5.0479126E-1,0E0,0E0,1.765686E2,3.0091922E2,1.9421139E0,0E0,1.375993E2,0E0,0E0,1.19372284E2,0E0,0E0,0E0,0E0,0E0,0E0],"parents":[2147483647,0,0,1,1,2,2,3,3,4,4,5,5,6,6,7,7,8,8,9,9,16,16,19,19,20,20,21,21,23,23,26,26],"right_children":[2,4,6,8,10,12,14,16,18,20,-1,-1,-1,-1,-1,-1,22,-1,-1,24,26,28,-1,30,-1,-1,32,-1,-1,-1,-1,-1,-1],"split_conditions":[4.1523486E-1,5.1339846E0,1.8566374E-1,6.7131676E1,4.1068335E0,4.9673935E1,5.4025216E0,1.4170604E-3,5.7938887E-5,1.699338E-2,-1.3205455E-1,-1.309019E-1,1.0273395E-1,-8.544781E-2,1.3124791E-1,-0E0,4.6381835E-2,4.14878E-2,1.3180399E-1,3.710894E-2,1.2735524E0,9.427954E-2,-1.3057798E-1,1.6577564E-2,-1.3068774E-1,-1.315591E-1,6.894952E-2,-1.0266375E-1,1.0028276E-2,3.4718753E-3,-1.301929E-1,1.0633986E-2,1.18105985E-1],"split_indices":[0,7,1,4,5,0,8,0,1,1,0,0,0,0,0,0,4,0,0,0,2,0,0,1,0,0,1,0,0,0,0,0,0],"split_type":[0,0,0,0,0,0,0,0,0,0,0,0,0,0,0,0,0,0,0,0,0,0,0,0,0,0,0,0,0,0,0,0,0],"sum_hessian":[4.993218E3,4.3230117E3,6.702061E2,5.1438544E2,3.8086262E3,1.416968E2,5.2850934E2,1.7977382E2,3.346116E2,1.7487085E3,2.0599177E3,1.3901477E2,2.6820114E0,1.6075401E0,5.269018E2,1E0,1.7877382E2,1.317769E0,3.3329385E2,1.1767141E3,5.719943E2,1.1063113E1,1.6771071E2,3.334319E2,8.432822E2,1.16433365E2,4.5556094E2,9.469073E0,1.5940399E0,2.14232E2,1.191999E2,2.982114E2,1.5734955E2],"tree_param":{"num_deleted":"0","num_feature":"9","num_nodes":"33","size_leaf_vector":"0"}},{"base_weights":[-6.1371094E-1,-8.222676E-1,7.283663E-1,3.988607E-1,-9.849567E-1,-1.2160238E0,1.2583318E0,-1.2328779E0,1.2756805E0,-6.436411E-1,-1.2807845E-1,-1.265782E-1,9.858044E-2,-8.53683E-2,1.2674066E0,-1.2811317E-1,-8.7156796E-1,3.9473157E-2,1.278095E-1,-1.0808718E0,-5.7723364E-3,1.4031136E-2,1.2696804E-1,7.31685E-2,-1.0121285E0,-1.7553934E-1,-1.2913786E0,-1.3804857E0,3.101742E-1,-1.13674045E-1,4.3121602E-2,-1.2576523E-1,4.0235918E-2,-1.5058371E-1,-1.264555E-1,-1.9277704E-1,-1.2742689E-1,1.1304915E-1,-9.893122E-4],"categories":[],"categories_nodes":[],"categories_segments":[],"categories_sizes":[],"default_left":[0,0,1,0,0,0,0,0,1,1,0,0,0,0,0,0,0,0,0,0,0,0,0,0,1,1,0,0,0,0,0,0,0,0,0,0,0,0,0],"id":8,"left_children":[1,3,5,7,9,11,13,15,17,19,-1,-1,-1,-1,21,-1,23,-1,-1,25,27,-1,-1,-1,29,31,33,35,37,-1,-1,-1,-1,-1,-1,-1,-1,-1,-1],"loss_changes":[1.314259E3,8.074783E2,6.5254663E2,6.859366E2,3.611787E2,1.6128464E1,1.0606506E1,1.8071442E0,1.5829468E-1,4.6481403E2,0E0,0E0,0E0,0E0,1.0910034E0,0E0,5.8980064E0,0E0,0E0,1.8822412E2,2.9526022E2,0E0,0E0,0E0,4.3500786E0,1.1788718E2,2.710083E0,4.9283447E0,1.4514548E2,0E0,0E0,0E0,0E0,0E0,0E0,0E0,0E0,0E0,0E0],"parents":[2147483647,0,0,1,1,2,2,3,3,4,4,5,5,6,6,7,7,8,8,9,9,14,14,16,16,19,19,20,20,24,24,25,25,26,26,27,27,28,28],"right_children":[2,4,6,8,10,12,14,16,18,20,-1,-1,-1,-1,22,-1,24,-1,-1,26,28,-1,-1,-1,30,32,34,36,38,-1,-1,-1,-1,-1,-1,-1,-1,-1,-1],"split_conditions":[4.0919837E-1,5.1339846E0,1.7922124E-1,6.7131676E1,4.1068335E0,4.9673935E1,5.4025216E0,7.2911575E1,5.7938887E-5,1.0296157E-2,-1.2807845E-1,-1.265782E-1,9.858044E-2,-8.53683E-2,1.4348795E-1,-1.2811317E-1,8.116784E-3,3.9473157E-2,1.278095E-1,2.2530781E-2,1.2719781E0,1.4031136E-2,1.2696804E-1,7.31685E-2,1.11828566E-1,2.4007826E-5,3.709174E-2,1.6999142E-2,8.0823444E-2,-1.13674045E-1,4.3121602E-2,-1.2576523E-1,4.0235918E-2,-1.5058371E-1,-1.264555E-1,-1.9277704E-1,-1.2742689E-1,1.1304915E-1,-9.893122E-4],"split_indices":[0,7,1,4,5,0,8,3,1,1,0,0,0,0,2,0,0,0,0,0,2,0,0,0,1,1,0,1,0,0,0,0,0,0,0,0,0,0,0],"split_type":[0,0,0,0,0,0,0,0,0,0,0,0,0,0,0,0,0,0,0,0,0,0,0,0,0,0,0,0,0,0,0,0,0,0,0,0,0,0,0],"sum_hessian":[4.6923335E3,4.0615605E3,6.307728E2,4.773283E2,3.5842322E3,1.3482368E2,4.9594913E2,1.6669928E2,3.1062903E2,1.6656454E3,1.9185868E3,1.3225993E2,2.5637555E0,1.7236412E0,4.942255E2,1.4481332E2,2.1885965E1,1.2985644E0,3.0933047E2,9.878344E2,6.7781104E2,1.1213032E0,4.931042E2,1.4251401E0,2.0460825E1,1.8670425E2,8.011301E2,1.2603807E2,5.5177295E2,1.9030264E1,1.4305613E0,6.4587715E1,1.2211653E2,8.293286E1,7.1819727E2,1.7698217E1,1.0833985E2,1.541533E2,3.9761966E2],"tree_param":{"num_deleted":"0","num_feature":"9","num_nodes":"39","size_leaf_vector":"0"}},{"base_weights":[-5.90249E-1,-8.073796E-1,6.019211E-1,4.1120198E-1,-9.5692277E-1,-1.1902598E0,1.1920887E0,-1.1926918E0,1.2409056E0,-6.26164E-1,-1.2468578E-1,-1.2273457E-1,9.479427E-2,-1.113711E-1,1.2252123E0,-1.2449415E-1,-8.052757E-1,4.3268662E-2,1.2436271E-1,-9.4050413E-1,1.5845305E-1,-1.3016395E-2,1.2286308E-1,6.7879274E-2,-9.633377E-1,-3.8046393E-1,-1.2665764E0,-1.2365099E-1,5.4354894E-1,-1.0759747E-1,3.1586416E-2,-1.1518534E-1,1.3006865E-2,-1.23326495E-1,-1.7571937E-1,1.4350635E-1,3.4146484E-2],"categories":[],"categories_nodes":[],"categories_segments":[],"categories_sizes":[],"default_left":[0,0,1,0,0,0,0,0,1,1,0,0,0,0,0,0,0,0,0,0,0,0,0,0,1,1,1,0,0,0,0,0,0,0,0,0,0],"id":9,"left_children":[1,3,5,7,9,11,13,15,17,19,-1,-1,-1,-1,21,-1,23,-1,-1,25,27,-1,-1,-1,29,31,33,-1,35,-1,-1,-1,-1,-1,-1,-1,-1],"loss_changes":[1.1423794E3,6.804922E2,7.2087933E2,5.4527356E2,3.1802808E2,1.4565277E1,4.0485535E1,1.8279419E0,5.532837E-2,3.836452E2,0E0,0E0,0E0,0E0,2.50177E0,0E0,5.2161026E0,0E0,0E0,2.0227222E2,2.4005269E2,0E0,0E0,0E0,2.9319725E0,1.6161378E2,9.294434E0,0E0,6.254899E1,0E0,0E0,0E0,0E0,0E0,0E0,0E0,0E0],"parents":[2147483647,0,0,1,1,2,2,3,3,4,4,5,5,6,6,7,7,8,8,9,9,14,14,16,16,19,19,20,20,24,24,25,25,26,26,28,28],"right_children":[2,4,6,8,10,12,14,16,18,20,-1,-1,-1,-1,22,-1,24,-1,-1,26,28,-1,-1,-1,30,32,34,-1,36,-1,-1,-1,-1,-1,-1,-1,-1],"split_conditions":[3.3855265E-1,5.1339846E0,1.4804353E-1,6.7131676E1,4.1068335E0,4.9673935E1,5.4025216E0,7.2911575E1,5.8258993E-5,2.283096E-2,-1.2468578E-1,-1.2273457E-1,9.479427E-2,-1.113711E-1,1.288009E-1,-1.2449415E-1,8.253389E-3,4.3268662E-2,1.2436271E-1,4.972256E-2,1.2718455E0,-1.3016395E-2,1.2286308E-1,6.7879274E-2,1.0906915E-1,4.481461E-4,1.7000088E-2,-1.2365099E-1,8.1098154E-2,-1.0759747E-1,3.1586416E-2,-1.1518534E-1,1.3006865E-2,-1.23326495E-1,-1.7571937E-1,1.4350635E-1,3.4146484E-2],"split_indices":[0,7,1,4,5,0,8,3,1,1,0,0,0,0,2,0,0,0,0,0,2,0,0,0,1,1,1,0,0,0,0,0,0,0,0,0,0],"split_type":[0,0,0,0,0,0,0,0,0,0,0,0,0,0,0,0,0,0,0,0,0,0,0,0,0,0,0,0,0,0,0,0,0,0,0,0,0],"sum_hessian":[4.410297E3,3.7310767E3,6.7922046E2,4.0763486E2,3.323442E3,1.6800809E2,5.1121234E2,1.3882869E2,2.6880615E2,1.5539032E3,1.7695386E3,1.655625E2,2.4455912E0,6.777742E0,5.044346E2,1.2037993E2,1.844877E1,1.4390059E0,2.6736716E2,1.1092908E3,4.446125E2,1.175786E0,5.0325882E2,1.4586662E0,1.6990103E1,4.0899487E2,7.002959E2,9.570865E1,3.4890384E2,1.5761164E1,1.2289401E0,1.623842E2,2.4661069E2,6.590612E2,4.1234653E1,6.334586E1,2.8555798E2],"tree_param":{"num_deleted":"0","num_feature":"9","num_nodes":"37","size_leaf_vector":"0"}},{"base_weights":[-5.699655E-1,-7.599601E-1,6.9765455E-1,3.7607136E-1,-9.082045E-1,-1.1524129E0,1.1989652E0,-1.164752E0,1.2121282E0,-5.738285E-1,-1.2178649E-1,-1.2030392E-1,9.1314234E-2,-7.5249374E-2,1.2071883E-1,-1.216022E-1,-8.008645E-1,1.21558145E-1,3.2381926E-2,-8.4869933E-1,3.532459E-1,4.0222138E-1,-9.8030925E-1,-4.0148398E-1,-1.2827789E0,-1.20512545E-1,7.7091706E-1,-7.568359E-2,1.5560636E-1,-1.1085755E-1,2.0589547E-2,-9.3088076E-2,2.8020516E-2,-1.1974696E-1,-1.8122248E-1,4.102395E-2,1.1777031E-1],"categories":[],"categories_nodes":[],"categories_segments":[],"categories_sizes":[],"default_left":[0,0,1,0,0,0,0,0,0,1,0,0,0,0,0,0,0,0,0,0,0,0,1,1,1,0,0,0,0,0,0,0,0,0,0,0,0],"id":10,"left_children":[1,3,5,7,9,11,13,15,17,19,-1,-1,-1,-1,-1,-1,21,-1,-1,23,25,27,29,31,33,-1,35,-1,-1,-1,-1,-1,-1,-1,-1,-1,-1],"loss_changes":[9.951991E2,6.0529297E2,5.011418E2,5.364696E2,3.2833838E2,1.3165192E1,7.7196045E0,1.7612915E0,4.3380737E-1,3.901338E2,0E0,0E0,0E0,0E0,0E0,0E0,4.9353495E0,0E0,0E0,2.2860376E2,2.2910068E2,5.7771726E0,3.057495E0,2.1057886E2,2.4860596E1,0E0,4.0168015E1,0E0,0E0,0E0,0E0,0E0,0E0,0E0,0E0,0E0,0E0],"parents":[2147483647,0,0,1,1,2,2,3,3,4,4,5,5,6,6,7,7,8,8,9,9,16,16,19,19,20,20,21,21,22,22,23,23,24,24,26,26],"right_children":[2,4,6,8,10,12,14,16,18,20,-1,-1,-1,-1,-1,-1,22,-1,-1,24,26,28,30,32,34,-1,36,-1,-1,-1,-1,-1,-1,-1,-1,-1,-1],"split_conditions":[4.162846E-1,5.1339846E0,1.8742466E-1,6.7131676E1,4.1068335E0,4.9673935E1,5.4025216E0,7.2911575E1,1.8742466E-1,3.4483884E-2,-1.2178649E-1,-1.2030392E-1,9.1314234E-2,-7.5249374E-2,1.2071883E-1,-1.216022E-1,4.4666752E-2,1.21558145E-1,3.2381926E-2,7.536094E-2,1.2585111E0,1.7783161E-2,1.0965463E-1,5.3184764E-3,1.7069757E-2,-1.20512545E-1,7.701083E-2,-7.568359E-2,1.5560636E-1,-1.1085755E-1,2.0589547E-2,-9.3088076E-2,2.8020516E-2,-1.1974696E-1,-1.8122248E-1,4.102395E-2,1.1777031E-1],"split_indices":[0,7,1,4,5,0,8,3,1,1,0,0,0,0,0,0,0,0,0,0,2,4,1,1,1,0,1,0,0,0,0,0,0,0,0,0,0],"split_type":[0,0,0,0,0,0,0,0,0,0,0,0,0,0,0,0,0,0,0,0,0,0,0,0,0,0,0,0,0,0,0,0,0,0,0,0,0],"sum_hessian":[4.12898E3,3.5911309E3,5.3784894E2,4.1434796E2,3.176783E3,1.1439177E2,4.2345715E2,1.4560672E2,2.6874124E2,1.5288068E3,1.6479762E3,1.1206271E2,2.3290553E0,1.3970824E0,4.220601E2,1.25572395E2,2.0034327E1,2.6733356E2,1.4077005E0,1.1792518E3,3.4955502E2,2.4392061E0,1.759512E1,5.817856E2,5.9746625E2,7.348606E1,2.7606894E2,1.3885019E0,1.0507042E0,1.5937243E1,1.6578763E0,3.272664E2,2.5451918E2,5.173653E2,8.0100945E1,1.4739203E2,1.2867693E2],"tree_param":{"num_deleted":"0","num_feature":"9","num_nodes":"37","size_leaf_vector":"0"}},{"base_weights":[-5.509364E-1,-7.345699E-1,6.7462254E-1,3.6871588E-1,-8.7564147E-1,-1.1224686E0,1.1664128E0,-1.1348767E0,1.1863382E0,-5.440188E-1,-1.1927515E-1,-1.1723959E-1,8.80919E-2,-7.563022E-2,1.1755754E0,-1.1897131E-1,-7.50801E-1,3.6039405E-2,1.189389E-1,-9.025317E-1,1.0845454E-1,1.0612514E-2,1.1782339E0,3.8642007E-1,-9.3355745E-1,-3.0501804E-1,-1.1792718E0,-1.19539335E-1,3.805634E-1,1.9197727E-2,1.1804545E-1,-7.31156E-2,1.4511274E-1,-1.0748737E-1,3.689902E-2,-1.933917E-1,-7.276736E-3,-1.1825851E-1,-5.530117E-2,6.392196E-3,1.06335476E-1],"categories":[],"categories_nodes":[],"categories_segments":[],"categories_sizes":[],"default_left":[0,0,1,0,0,0,0,0,1,1,0,0,0,0,0,0,0,0,0,0,0,0,0,0,1,0,1,0,0,0,0,0,0,0,0,0,0,0,0,0,0],"id":11,"left_children":[1,3,5,7,9,11,13,15,17,19,-1,-1,-1,-1,21,-1,23,-1,-1,25,27,-1,29,31,33,35,37,-1,39,-1,-1,-1,-1,-1,-1,-1,-1,-1,-1,-1,-1],"loss_changes":[8.696371E2,5.2314954E2,4.465405E2,4.7038568E2,3.1258643E2,1.1910416E1,7.8658447E0,1.9479523E0,1.9537354E-1,3.41115E2,0E0,0E0,0E0,0E0,9.9664307E-1,0E0,4.4269457E0,0E0,0E0,1.5523541E2,1.8418788E2,0E0,6.3513184E-1,5.1257367E0,3.553173E0,1.1305338E2,6.796875E-1,0E0,9.27269E1,0E0,0E0,0E0,0E0,0E0,0E0,0E0,0E0,0E0,0E0,0E0,0E0],"parents":[2147483647,0,0,1,1,2,2,3,3,4,4,5,5,6,6,7,7,8,8,9,9,14,14,16,16,19,19,20,20,22,22,23,23,24,24,25,25,26,26,28,28],"right_children":[2,4,6,8,10,12,14,16,18,20,-1,-1,-1,-1,22,-1,24,-1,-1,26,28,-1,30,32,34,36,38,-1,40,-1,-1,-1,-1,-1,-1,-1,-1,-1,-1,-1,-1],"split_conditions":[4.0929076E-1,5.1339846E0,1.7969851E-1,6.7131676E1,4.1068335E0,4.9673935E1,5.4025216E0,7.2911575E1,5.85791E-5,1.6908552E-2,-1.1927515E-1,-1.1723959E-1,8.80919E-2,-7.563022E-2,1.4400814E-1,-1.1897131E-1,4.455414E-2,3.6039405E-2,1.189389E-1,3.642065E-2,1.2518321E0,1.0612514E-2,1.8742466E-1,1.7436875E-2,1.0946174E-1,1.8701632E-2,1.6679998E-2,-1.19539335E-1,6.980662E-2,1.9197727E-2,1.1804545E-1,-7.31156E-2,1.4511274E-1,-1.0748737E-1,3.689902E-2,-1.933917E-1,-7.276736E-3,-1.1825851E-1,-5.530117E-2,6.392196E-3,1.06335476E-1],"split_indices":[0,7,1,4,5,0,8,3,1,1,0,0,0,0,2,0,0,0,0,0,2,0,1,4,1,2,1,0,1,0,0,0,0,0,0,0,0,0,0,0,0],"split_type":[0,0,0,0,0,0,0,0,0,0,0,0,0,0,0,0,0,0,0,0,0,0,0,0,0,0,0,0,0,0,0,0,0,0,0,0,0,0,0,0,0],"sum_hessian":[3.8609304E3,3.3581567E3,5.027739E2,3.8052798E2,2.9776287E3,1.0775072E2,3.950232E2,1.339001E2,2.4662788E2,1.456836E3,1.5207926E3,1.0553542E2,2.2152922E0,1.4867804E0,3.935364E2,1.1533547E2,1.856462E1,1.3460484E0,2.4528183E2,9.3997E2,5.168661E2,1.0773344E0,3.9245908E2,2.416056E0,1.6148563E1,2.9820767E2,6.4176227E2,8.8657616E1,4.2820847E2,1.0781109E0,3.9138095E2,1.331607E0,1.0844489E0,1.4725728E1,1.4228349E0,3.6298676E1,2.61909E2,6.3750116E2,4.2611084E0,2.932901E2,1.3491838E2],"tree_param":{"num_deleted":"0","num_feature":"9","num_nodes":"41","size_leaf_vector":"0"}},{"base_weights":[-5.330231E-1,-7.0721984E-1,6.7450047E-1,3.584534E-1,-8.428284E-1,-1.0969559E0,1.1501509E0,-1.1112138E0,1.1642889E0,-5.132061E-1,-1.17095165E-1,-1.14917375E-1,8.508865E-2,-6.608134E-2,1.1576577E-1,-1.16685405E-1,-7.3711616E-1,3.4319542E-2,1.1675271E-1,-9.323437E-1,1.3770744E-2,3.7111384E-1,-9.1700166E-1,-5.5550825E-2,-1.1827923E0,-1.2684096E0,2.5995925E-1,-7.069569E-2,1.3591634E-1,-1.0480374E-1,1.7236298E-2,4.3134775E-2,-1.1759593E-1,-1.4044791E-1,-1.1499577E-1,-1.637574E-1,-1.1706283E-1,1.24757946E-1,3.6514343E-3],"categories":[],"categories_nodes":[],"categories_segments":[],"categories_sizes":[],"default_left":[0,0,1,0,0,0,0,0,1,1,0,0,0,0,0,0,0,0,0,0,0,0,1,0,0,0,0,0,0,0,0,0,0,0,0,0,0,0,0],"id":12,"left_children":[1,3,5,7,9,11,13,15,17,19,-1,-1,-1,-1,-1,-1,21,-1,-1,23,25,27,29,31,33,35,37,-1,-1,-1,-1,-1,-1,-1,-1,-1,-1,-1,-1],"loss_changes":[7.5958765E2,4.5615393E2,3.8505383E2,4.2384076E2,3.0208447E2,1.0836388E1,5.6531067E0,1.7805176E0,2.1325684E-1,3.0877106E2,0E0,0E0,0E0,0E0,0E0,0E0,4.1561136E0,0E0,0E0,1.7091296E2,1.9611983E2,4.5664306E0,2.5724716E0,9.545159E1,2.7928467E0,1.6956787E0,1.1496753E2,0E0,0E0,0E0,0E0,0E0,0E0,0E0,0E0,0E0,0E0,0E0,0E0],"parents":[2147483647,0,0,1,1,2,2,3,3,4,4,5,5,6,6,7,7,8,8,9,9,16,16,19,19,20,20,21,21,22,22,23,23,24,24,25,25,26,26],"right_children":[2,4,6,8,10,12,14,16,18,20,-1,-1,-1,-1,-1,-1,22,-1,-1,24,26,28,30,32,34,36,38,-1,-1,-1,-1,-1,-1,-1,-1,-1,-1,-1,-1],"split_conditions":[4.2157236E-1,5.1339846E0,1.8919209E-1,6.7131676E1,4.1068335E0,4.9673935E1,5.4025216E0,7.2911575E1,5.85791E-5,1.0207226E-2,-1.17095165E-1,-1.14917375E-1,8.508865E-2,-6.608134E-2,1.1576577E-1,-1.16685405E-1,4.544481E-2,3.4319542E-2,1.1675271E-1,2.2557443E-2,1.2505087E0,1.718372E-2,1.1211114E-1,1.0207226E-2,3.72867E-2,1.736374E-2,5.8323983E-2,-7.069569E-2,1.3591634E-1,-1.0480374E-1,1.7236298E-2,4.3134775E-2,-1.1759593E-1,-1.4044791E-1,-1.1499577E-1,-1.637574E-1,-1.1706283E-1,1.24757946E-1,3.6514343E-3],"split_indices":[0,7,1,4,5,0,8,3,1,1,0,0,0,0,0,0,0,0,0,0,2,4,1,1,0,1,0,0,0,0,0,0,0,0,0,0,0,0,0],"split_type":[0,0,0,0,0,0,0,0,0,0,0,0,0,0,0,0,0,0,0,0,0,0,0,0,0,0,0,0,0,0,0,0,0,0,0,0,0,0,0],"sum_hessian":[3.607857E3,3.1533682E3,4.5448886E2,3.5578748E2,2.7975808E3,9.592625E1,3.585626E2,1.2586265E2,2.2992482E2,1.3968816E3,1.4006992E3,9.382111E1,2.105133E0,1.1209184E0,3.5744168E2,1.0772186E2,1.8140787E1,1.3234499E0,2.2860136E2,7.7762146E2,6.192601E2,2.3849072E0,1.575588E1,1.7304205E2,6.045794E2,9.9081116E1,5.2017896E2,1.2765467E0,1.1083605E0,1.4098018E1,1.6578628E0,1.2105145E2,5.1990604E1,7.2604904E1,5.3197455E2,1.7450605E1,8.163051E1,9.512883E1,4.250501E2],"tree_param":{"num_deleted":"0","num_feature":"9","num_nodes":"39","size_leaf_vector":"0"}},{"base_weights":[-5.158202E-1,-8.552654E-1,6.7717195E-2,-6.7129207E-1,-1.2011882E0,-1.0830703E0,9.3487847E-1,-1.1509826E-1,-2.5066555E-1,-1.1353573E0,-1.5642073E0,-1.1512762E-1,1.0968393E-1,5.1348567E-1,1.1011173E0,-1.0456268E0,1.0206143E-1,-4.472037E-1,-1.1384167E-1,-1.723006E-1,-1.11868836E-1,9.919596E-1,-2.2900093E0,8.552562E-1,1.1323955E-1,1.3860451E0,-1.1571406E0,-1.3346902E0,5.439032E-1,3.873996E-2,-8.1919E-2,1.1723816E0,5.9195113E-1,-2.7464702E0,-1.03607036E-1,1.104664E0,-1.8396882E0,1.8814513E-1,2.2554405E-2,-1.1665648E-1,-7.081609E-2,-1.5541895E-1,-1.13673545E-1,1.844102E-2,1.0657821E-1,1.1844905E-1,1.699206E-2,-2.491499E-1,1.15714364E-1,-2.9364428E-1,-1.0183952E-1,1.1196538E-1,2.2439001E-2,-2.4340427E-1,-8.3627194E-2],"categories":[],"categories_nodes":[],"categories_segments":[],"categories_sizes":[],"default_left":[1,1,0,0,1,0,0,0,1,0,0,0,0,0,0,1,0,1,0,0,0,0,0,0,0,0,0,0,0,0,0,1,0,0,0,0,0,0,0,0,0,0,0,0,0,0,0,0,0,0,0,0,0,0,0],"id":13,"left_children":[1,3,5,7,9,11,13,-1,15,17,19,-1,-1,21,23,25,27,29,-1,-1,-1,31,33,35,-1,37,39,41,43,-1,-1,45,47,49,-1,51,53,-1,-1,-1,-1,-1,-1,-1,-1,-1,-1,-1,-1,-1,-1,-1,-1,-1,-1],"loss_changes":[6.682598E2,1.349292E2,1.239994E3,2.8110388E2,1.5890015E1,8.065857E1,4.907135E1,0E0,2.0882062E2,8.1604004E-1,5.913391E0,0E0,0E0,2.7367175E2,2.932312E0,6.365988E1,3.2859772E2,1.6935539E0,0E0,0E0,0E0,1.1829514E1,1.4210693E1,4.3257565E1,0E0,5.606333E0,1.0205078E-1,3.5240936E0,7.404466E1,0E0,0E0,1.2379761E0,1.0040571E2,3.982605E0,0E0,4.9777222E-1,1.2867279E0,0E0,0E0,0E0,0E0,0E0,0E0,0E0,0E0,0E0,0E0,0E0,0E0,0E0,0E0,0E0,0E0,0E0,0E0],"parents":[2147483647,0,0,1,1,2,2,3,3,4,4,5,5,6,6,8,8,9,9,10,10,13,13,14,14,15,15,16,16,17,17,21,21,22,22,23,23,25,25,26,26,27,27,28,28,31,31,32,32,33,33,35,35,36,36],"right_children":[2,4,6,8,10,12,14,-1,16,18,20,-1,-1,22,24,26,28,30,-1,-1,-1,32,34,36,-1,38,40,42,44,-1,-1,46,48,50,-1,52,54,-1,-1,-1,-1,-1,-1,-1,-1,-1,-1,-1,-1,-1,-1,-1,-1,-1,-1],"split_conditions":[3.611911E-2,7.9301186E-2,1.7179111E1,4.573622E0,1.7357085E-2,8.815529E-1,7.8024745E-2,-1.1509826E-1,3.3354873E-4,1.1153227E-3,4.1068335E0,-1.1512762E-1,1.0968393E-1,1.7196262E-1,1.0239603E-1,6.7315635E-4,7.802447E-2,2.1910279E-3,-1.1384167E-1,-1.723006E-1,-1.11868836E-1,1.3312775E-1,4.1068335E0,2.2630385E-1,1.1323955E-1,2.9897748E-4,7.766305E-2,4.1068335E0,1.3619838E-2,3.873996E-2,-8.1919E-2,2.8027382E0,6.0175136E-2,3.4405336E-1,-1.03607036E-1,2.2225986E-1,4.1068335E0,1.8814513E-1,2.2554405E-2,-1.1665648E-1,-7.081609E-2,-1.5541895E-1,-1.13673545E-1,1.844102E-2,1.0657821E-1,1.1844905E-1,1.699206E-2,-2.491499E-1,1.15714364E-1,-2.9364428E-1,-1.0183952E-1,1.1196538E-1,2.2439001E-2,-2.4340427E-1,-8.3627194E-2],"split_indices":[1,0,2,6,1,0,1,0,1,3,5,0,0,0,1,0,2,1,0,0,0,0,5,0,0,1,0,5,1,0,0,3,1,0,0,0,5,0,0,0,0,0,0,0,0,0,0,0,0,0,0,0,0,0,0],"split_type":[0,0,0,0,0,0,0,0,0,0,0,0,0,0,0,0,0,0,0,0,0,0,0,0,0,0,0,0,0,0,0,0,0,0,0,0,0,0,0,0,0,0,0,0,0,0,0,0,0,0,0,0,0,0,0],"sum_hessian":[3.372412E3,2.1318462E3,1.2405659E3,1.3936155E3,7.382308E2,5.3299414E2,7.0757184E2,6.502834E2,7.433321E2,6.284022E2,1.09828606E2,5.1728107E2,1.5713041E1,2.0132616E2,5.062457E2,2.2784966E2,5.154824E2,3.4327638E0,6.249694E2,7.885461E1,3.0973995E1,1.7252704E2,2.8799109E1,6.0334415E1,4.459113E2,9.4896145E0,2.1836003E2,1.2076525E2,3.9471716E2,1.0455319E0,2.387232E0,1.17567726E2,5.4959316E1,2.024076E1,8.558348E0,5.5763767E1,4.5706477E0,6.215178E0,3.2744365E0,2.1230542E2,6.054616E0,5.40175E1,6.674775E1,2.3452171E2,1.6019545E2,1.1598515E2,1.5825763E0,7.9855137E0,4.69738E1,1.760602E1,2.6347406E0,5.4562706E1,1.2010622E0,1.9750239E0,2.595624E0],"tree_param":{"num_deleted":"0","num_feature":"9","num_nodes":"55","size_leaf_vector":"0"}},{"base_weights":[-5.0070775E-1,-9.023034E-1,-3.7947185E-2,9.437002E-2,-9.589719E-1,-1.080114E0,6.8731266E-1,-1.3748504E-1,4.9310052E-1,-8.0441725E-1,-1.1266661E0,-1.13532E-1,1.07561745E-1,2.1855061E-1,1.0770323E0,1.1464779E0,2.824208E-3,7.956787E-1,-9.2846227E-1,-5.700592E-1,-1.129136E-1,6.4091516E-1,-1.7287858E0,8.4599715E-1,1.1068482E0,-8.408401E-2,1.3941787E0,-1.584961E-1,1.0234632E0,-1.0761964E-1,1.144722E-1,-4.072217E-1,-1.1341504E-1,4.130293E-2,-8.931463E-2,1.0311466E0,2.8940633E-1,-1.9177127E0,-1.0779444E-1,1.0920043E-1,-1.7454772E0,1.12021975E-1,8.971301E-1,1.6658044E-1,-9.977046E-2,1.6596399E-1,8.7526836E-2,1.138181E-1,-7.2113164E-2,-1.0756444E-1,-2.0388907E-3,1.1971631E-1,7.549098E-2,-1.6735962E-1,9.722908E-2,-1.5657608E-1,-2.3624526E-1,-2.1971932E-1,-8.01258E-2,1.0545289E-1,-1.3826363E-1],"categories":[],"categories_nodes":[],"categories_segments":[],"categories_sizes":[],"default_left":[1,0,0,0,1,0,0,0,1,0,0,0,0,0,0,1,0,0,0,1,0,0,0,0,1,1,0,0,0,0,0,1,0,0,0,0,0,0,0,0,0,0,0,0,0,0,0,0,0,0,0,0,0,0,0,0,0,0,0,0,0],"id":14,"left_children":[1,3,5,7,9,11,13,-1,15,17,19,-1,-1,21,23,25,27,29,31,33,-1,35,37,39,41,43,45,-1,47,-1,-1,49,-1,-1,-1,51,53,55,-1,-1,57,-1,59,-1,-1,-1,-1,-1,-1,-1,-1,-1,-1,-1,-1,-1,-1,-1,-1,-1,-1],"loss_changes":[5.8431635E2,9.516736E1,1.1057505E3,5.4265366E1,4.0378296E1,7.266235E1,1.573598E2,0E0,2.3279993E1,1.6596082E2,4.0325928E-1,0E0,0E0,3.2423785E2,2.3067017E0,9.614105E0,7.053997E1,4.0713387E1,8.2412964E1,2.0789003E0,0E0,4.408644E1,6.576233E0,3.891761E1,1.552124E-1,1.1516233E1,2.1278915E0,0E0,6.1233006E0,0E0,0E0,5.693601E1,0E0,0E0,0E0,6.1105957E0,2.3169028E2,4.627548E0,0E0,0E0,5.5044746E-1,0E0,1.2158205E1,0E0,0E0,0E0,0E0,0E0,0E0,0E0,0E0,0E0,0E0,0E0,0E0,0E0,0E0,0E0,0E0,0E0,0E0],"parents":[2147483647,0,0,1,1,2,2,3,3,4,4,5,5,6,6,8,8,9,9,10,10,13,13,14,14,15,15,16,16,17,17,18,18,19,19,21,21,22,22,23,23,24,24,25,25,26,26,28,28,31,31,35,35,36,36,37,37,40,40,42,42],"right_children":[2,4,6,8,10,12,14,-1,16,18,20,-1,-1,22,24,26,28,30,32,34,-1,36,38,40,42,44,46,-1,48,-1,-1,50,-1,-1,-1,52,54,56,-1,-1,58,-1,60,-1,-1,-1,-1,-1,-1,-1,-1,-1,-1,-1,-1,-1,-1,-1,-1,-1,-1],"split_conditions":[1.7787239E-2,1.6318329E-2,1.7179111E1,1.4811738E-1,3.9037026E-2,9.2842335E-1,7.733965E-2,-1.3748504E-1,1.55341495E-2,5.1339846E0,1.0438958E-3,-1.13532E-1,1.07561745E-1,1.7096639E-1,1.0131386E-1,3.4347197E-4,6.8108602E-3,4.212051E0,4.1068335E0,3.907834E-4,-1.129136E-1,9.05758E-2,4.1068335E0,2.2395745E-1,7.187649E-1,1.0042511E-3,1.056149E-2,-1.584961E-1,3.9037026E-2,-1.0761964E-1,1.144722E-1,2.5288244E-5,-1.1341504E-1,4.130293E-2,-8.931463E-2,7.110426E-2,4.1107148E-2,3.7488457E-2,-1.0779444E-1,1.0920043E-1,4.1068335E0,1.12021975E-1,4.1068335E0,1.6658044E-1,-9.977046E-2,1.6596399E-1,8.7526836E-2,1.138181E-1,-7.2113164E-2,-1.0756444E-1,-2.0388907E-3,1.1971631E-1,7.549098E-2,-1.6735962E-1,9.722908E-2,-1.5657608E-1,-2.3624526E-1,-2.1971932E-1,-8.01258E-2,1.0545289E-1,-1.3826363E-1],"split_indices":[1,4,2,2,0,0,1,0,0,7,3,0,0,0,1,1,1,3,5,1,0,0,5,0,3,0,0,0,0,0,0,1,0,0,0,0,1,1,0,0,5,0,5,0,0,0,0,0,0,0,0,0,0,0,0,0,0,0,0,0,0],"split_type":[0,0,0,0,0,0,0,0,0,0,0,0,0,0,0,0,0,0,0,0,0,0,0,0,0,0,0,0,0,0,0,0,0,0,0,0,0,0,0,0,0,0,0,0,0,0,0,0,0,0,0,0,0,0,0,0,0,0,0,0,0],"sum_hessian":[3.1433298E3,1.6823728E3,1.460957E3,9.047374E1,1.5918992E3,5.9929987E2,8.6165717E2,1.878985E1,7.168388E1,8.314206E2,7.604785E2,5.847972E2,1.4502672E1,3.9186978E2,4.6978738E2,3.01566E1,4.1527283E1,5.942781E1,7.719928E2,4.3837504E0,7.560948E2,3.2257602E2,6.9293755E1,5.705538E1,4.12732E2,5.163785E0,2.4992817E1,1.6032686E1,2.5494598E1,9.012363E0,5.0415447E1,2.1928241E2,5.527104E2,1.0154772E0,3.3682735E0,1.5195168E2,1.7062433E2,5.2195797E1,1.7097961E1,5.263718E1,4.418201E0,3.8391257E2,2.8819431E1,1.4888467E0,3.6749384E0,1.5079975E1,9.912842E0,2.4247757E1,1.2468415E0,7.9731224E1,1.3955118E2,9.282854E1,5.912314E1,4.3662483E1,1.2696185E2,3.1660994E1,2.0534803E1,2.0909107E0,2.3272903E0,2.7460926E1,1.3585064E0],"tree_param":{"num_deleted":"0","num_feature":"9","num_nodes":"61","size_leaf_vector":"0"}},{"base_weights":[-4.8764327E-1,-8.7678885E-1,-3.4758523E-2,1.0719895E-1,-9.353078E-1,-1.0650443E0,6.659487E-1,-1.324824E-1,4.804387E-1,-7.777698E-1,-1.1106578E0,-1.12071894E-1,1.0369505E-1,2.0672315E-1,1.0514997E0,1.0559837E0,3.469381E-2,7.757736E-1,-8.979084E-1,-5.423673E-1,-1.1133107E-1,6.213498E-1,-1.6102109E0,8.173955E-1,1.0878694E0,1.1919236E0,-6.5098375E-2,-1.4988947E-1,9.705877E-1,-1.0569326E-1,1.12658344E-1,-3.7766713E-1,-1.1194022E-1,-8.718887E-2,4.076636E-2,1.0587083E0,3.5586384E-1,-1.7551678E0,-1.0601979E-1,1.0493469E0,-1.672561E0,1.1022549E-1,8.6547893E-1,1.5666914E-1,7.7095956E-2,1.07345894E-1,-2.2569854E-2,-1.04943536E-1,-1.4467227E-3,8.545914E-2,1.2605003E-1,-1.5338735E-1,8.959028E-2,-1.4642642E-1,-2.0658481E-1,1.1370101E-1,8.424461E-2,-2.0349811E-1,-7.932604E-2,1.02781706E-1,-1.3095927E-1],"categories":[],"categories_nodes":[],"categories_segments":[],"categories_sizes":[],"default_left":[1,0,0,0,1,0,0,0,1,0,0,0,0,0,0,0,0,0,0,0,0,0,0,0,1,0,0,0,1,0,0,1,0,0,0,0,0,0,0,1,0,0,0,0,0,0,0,0,0,0,0,0,0,0,0,0,0,0,0,0,0],"id":15,"left_children":[1,3,5,7,9,11,13,-1,15,17,19,-1,-1,21,23,25,27,29,31,33,-1,35,37,39,41,43,-1,-1,45,-1,-1,47,-1,-1,-1,49,51,53,-1,55,57,-1,59,-1,-1,-1,-1,-1,-1,-1,-1,-1,-1,-1,-1,-1,-1,-1,-1,-1,-1],"loss_changes":[5.147932E2,9.056799E1,9.760857E2,4.82531E1,4.0103638E1,6.52113E1,1.4227133E2,0E0,1.8281548E1,1.4712067E2,4.5074463E-1,0E0,0E0,2.7863803E2,2.833496E0,7.9995117E0,6.0692898E1,3.7741665E1,8.354248E1,1.9834121E0,0E0,3.4548073E1,3.620758E0,3.8034096E1,2.4710083E-1,3.396801E0,0E0,0E0,3.471239E0,0E0,0E0,5.344288E1,0E0,0E0,0E0,3.5816574E0,1.9392323E2,1.7548828E0,0E0,9.550476E-2,2.1443176E-1,0E0,1.1043482E1,0E0,0E0,0E0,0E0,0E0,0E0,0E0,0E0,0E0,0E0,0E0,0E0,0E0,0E0,0E0,0E0,0E0,0E0],"parents":[2147483647,0,0,1,1,2,2,3,3,4,4,5,5,6,6,8,8,9,9,10,10,13,13,14,14,15,15,16,16,17,17,18,18,19,19,21,21,22,22,23,23,24,24,25,25,28,28,31,31,35,35,36,36,37,37,39,39,40,40,42,42],"right_children":[2,4,6,8,10,12,14,-1,16,18,20,-1,-1,22,24,26,28,30,32,34,-1,36,38,40,42,44,-1,-1,46,-1,-1,48,-1,-1,-1,50,52,54,-1,56,58,-1,60,-1,-1,-1,-1,-1,-1,-1,-1,-1,-1,-1,-1,-1,-1,-1,-1,-1,-1],"split_conditions":[1.8238265E-2,1.6173502E-2,1.7179111E1,1.5175094E-1,3.9953094E-2,5.856292E-1,7.638522E-2,-1.324824E-1,1.5581566E-2,5.1339846E0,1.0955632E-3,-1.12071894E-1,1.0369505E-1,1.674218E-1,1.0492162E-1,7.372407E-3,6.8300664E-3,4.212051E0,4.1068335E0,8.162661E-3,-1.1133107E-1,8.053222E-2,4.1068335E0,2.310117E-1,7.1639705E-1,7.6019843E-3,-6.5098375E-2,-1.4988947E-1,6.156331E-3,-1.0569326E-1,1.12658344E-1,2.5288244E-5,-1.1194022E-1,-8.718887E-2,4.076636E-2,2.649314E-2,3.617307E-2,3.617307E-2,-1.0601979E-1,1.0785738E-1,4.1068335E0,1.1022549E-1,4.1068335E0,1.5666914E-1,7.7095956E-2,1.07345894E-1,-2.2569854E-2,-1.04943536E-1,-1.4467227E-3,8.545914E-2,1.2605003E-1,-1.5338735E-1,8.959028E-2,-1.4642642E-1,-2.0658481E-1,1.1370101E-1,8.424461E-2,-2.0349811E-1,-7.932604E-2,1.02781706E-1,-1.3095927E-1],"split_indices":[1,4,2,2,0,0,1,0,0,7,3,0,0,0,1,1,1,3,5,1,0,0,5,0,3,0,0,0,3,0,0,1,0,0,0,1,1,1,0,4,5,0,5,0,0,0,0,0,0,0,0,0,0,0,0,0,0,0,0,0,0],"split_type":[0,0,0,0,0,0,0,0,0,0,0,0,0,0,0,0,0,0,0,0,0,0,0,0,0,0,0,0,0,0,0,0,0,0,0,0,0,0,0,0,0,0,0,0,0,0,0,0,0,0,0,0,0,0,0,0,0,0,0,0,0],"sum_hessian":[2.9201826E3,1.5701124E3,1.3500703E3,8.808828E1,1.4820242E3,5.4629895E2,8.0377136E2,1.7685219E1,7.040306E1,7.8352484E2,6.9849927E2,5.3265753E2,1.3641443E1,3.6753757E2,4.3623376E2,3.0130102E1,4.027296E1,5.5850468E1,7.276744E2,4.200276E0,6.94299E2,2.997844E2,6.775316E1,6.1815445E1,3.7441833E2,2.8187063E1,1.9430395E0,1.5034818E1,2.5238144E1,8.649705E0,4.7200764E1,2.1810283E2,5.0957156E2,3.1796544E0,1.0206213E0,1.1210921E2,1.876752E2,5.188709E1,1.5866071E1,5.7077015E1,4.73843E0,3.479543E2,2.6464006E1,1.3471894E1,1.4715169E1,2.3334253E1,1.9038899E0,7.5875465E1,1.4222737E2,5.8336063E1,5.3773144E1,4.130342E1,1.4637178E2,2.9746864E1,2.2140224E1,3.6933136E1,2.0143879E1,2.4247196E0,2.3137102E0,2.5116848E1,1.3471586E0],"tree_param":{"num_deleted":"0","num_feature":"9","num_nodes":"61","size_leaf_vector":"0"}},{"base_weights":[-4.7539496E-1,-6.424101E-1,5.31055E-1,-1.1309836E0,-3.9969367E-1,-1.0107468E0,1.0384603E0,-1.2906023E0,-1.1075572E-1,-9.138597E-1,3.0338228E-1,-1.0644789E-1,8.7966315E-2,-9.0557955E-2,1.0687764E0,-1.5790531E-1,-1.0971095E-1,1.0347196E0,-9.582784E-1,9.5535314E-1,4.9231034E-2,-3.7295066E-3,1.0730591E0,1.3698272E-1,5.196467E-1,-6.74366E-1,-1.1273736E0,-9.757418E-2,1.0402669E0,-3.396992E-1,5.216139E-1,9.1569704E-1,1.0983401E-1,-1.0607662E-1,9.801742E-2,-1.1039742E-1,3.8965087E-2,-1.2502441E-1,-1.0791278E-1,1.05582036E-1,-3.9680157E-2,6.1420906E-2,-1.3012356E-1,1.0737828E-1,2.5304705E-2,1.06521845E-1,-1.1264181E-1],"categories":[],"categories_nodes":[],"categories_segments":[],"categories_sizes":[],"default_left":[0,0,1,0,1,0,0,0,0,0,1,0,0,0,0,0,0,0,0,0,0,0,0,0,1,0,0,0,1,0,0,0,0,0,0,0,0,0,0,0,0,0,0,0,0,0,0],"id":16,"left_children":[1,3,5,7,9,11,13,15,-1,17,19,-1,-1,-1,21,-1,-1,23,25,27,29,-1,31,-1,33,35,37,-1,39,41,43,45,-1,-1,-1,-1,-1,-1,-1,-1,-1,-1,-1,-1,-1,-1,-1],"loss_changes":[4.5612396E2,2.753805E2,3.0338907E2,1.4553833E0,5.626112E2,1.0707939E1,1.813385E1,3.4405365E0,0E0,7.878052E1,1.0895422E2,0E0,0E0,0E0,1.4007568E0,0E0,0E0,2.828537E0,4.144995E1,3.12612E1,8.7330666E1,0E0,1.3272095E-1,0E0,8.096712E0,1.5158769E2,1.9085693E0,0E0,4.378952E0,2.3998431E2,3.1552147E1,1.5131214E1,0E0,0E0,0E0,0E0,0E0,0E0,0E0,0E0,0E0,0E0,0E0,0E0,0E0,0E0,0E0],"parents":[2147483647,0,0,1,1,2,2,3,3,4,4,5,5,6,6,7,7,9,9,10,10,14,14,17,17,18,18,19,19,20,20,22,22,24,24,25,25,26,26,28,28,29,29,30,30,31,31],"right_children":[2,4,6,8,10,12,14,16,-1,18,20,-1,-1,-1,22,-1,-1,24,26,28,30,-1,32,-1,34,36,38,-1,40,42,44,46,-1,-1,-1,-1,-1,-1,-1,-1,-1,-1,-1,-1,-1,-1,-1],"split_conditions":[3.4107572E-1,1.7179111E1,1.5143698E-1,4.1068335E0,6.8236645E-3,4.9673935E1,5.4025216E0,1.7073989E-2,-1.1075572E-1,5.814041E-3,1.9467058E-2,-1.0644789E-1,8.7966315E-2,-9.0557955E-2,1.4299844E-1,-1.5790531E-1,-1.0971095E-1,7.4581215E-3,1.5275179E-2,4.573622E0,3.4639645E-2,-3.7295066E-3,2.1492024E-1,1.3698272E-1,3.9877575E-3,4.573622E0,3.7311446E-2,-9.757418E-2,1.2441682E-2,7.570997E-2,1.2515496E-1,4.6854234E-1,1.0983401E-1,-1.0607662E-1,9.801742E-2,-1.1039742E-1,3.8965087E-2,-1.2502441E-1,-1.0791278E-1,1.05582036E-1,-3.9680157E-2,6.1420906E-2,-1.3012356E-1,1.0737828E-1,2.5304705E-2,1.06521845E-1,-1.1264181E-1],"split_indices":[0,2,1,5,1,0,8,1,0,4,4,0,0,0,2,0,0,0,0,6,1,0,1,0,1,6,0,0,3,0,0,0,0,0,0,0,0,0,0,0,0,0,0,0,0,0,0],"split_type":[0,0,0,0,0,0,0,0,0,0,0,0,0,0,0,0,0,0,0,0,0,0,0,0,0,0,0,0,0,0,0,0,0,0,0,0,0,0,0,0,0,0,0,0,0,0,0],"sum_hessian":[2.710502E3,2.325036E3,3.8546597E2,7.70469E2,1.5545669E3,9.5199814E1,2.9026617E2,9.168315E1,6.787858E2,8.977408E2,6.568261E2,9.2993515E1,2.2062945E0,4.013702E0,2.8625247E2,3.3934433E1,5.774872E1,1.9511393E1,8.7822943E2,1.8345427E2,4.7337183E2,1.0743635E0,2.851781E2,1.0815393E1,8.696E0,3.2968057E2,5.485488E2,7.285169E0,1.761691E2,2.5977246E2,2.1359938E2,4.4625614E1,2.4055249E2,1.6681073E0,7.0278926E0,2.3482849E2,9.485209E1,1.4763742E2,4.009114E2,1.7454527E2,1.6238191E0,1.3058482E2,1.2918764E2,6.8914375E1,1.44685E2,4.202683E1,2.5987847E0],"tree_param":{"num_deleted":"0","num_feature":"9","num_nodes":"47","size_leaf_vector":"0"}},{"base_weights":[-4.6241707E-1,-8.416849E-1,-4.1408192E-2,7.237606E-2,-8.991172E-1,-1.0420828E0,5.996889E-1,-1.23360656E-1,3.9835408E-1,-7.3496544E-1,-1.0767851E0,-1.0955777E-1,1.0215449E-1,1.673107E-1,1.0193628E0,8.725452E-1,-5.9623417E-2,-1.0943522E-1,-1.8399702E-1,-4.642979E-1,-1.07983686E-1,5.215653E-1,-1.5016004E0,7.624204E-1,1.0560222E0,1.2050483E-1,1.1783814E0,-1.3877998E-1,8.148372E-1,1.3894211E-1,-1.0166392E0,4.1691825E-2,-8.207654E-2,9.83599E-1,2.3736325E-1,-1.6121258E0,-1.0297187E-1,1.0077761E0,-1.5544634E-1,1.0717314E-1,8.1985027E-1,1.22874536E-1,-1.12718716E-1,1.4750725E-1,7.694516E-2,8.875178E-2,-4.66707E-3,-1.3351265E-1,5.3189028E-2,-1.0800361E-1,8.34334E-2,7.138786E-2,1.1067194E-1,-8.408609E-3,8.475682E-2,-1.3136481E-1,-1.8897797E-1,1.1043107E-1,7.821126E-2,9.887664E-2,-1.2117153E-1],"categories":[],"categories_nodes":[],"categories_segments":[],"categories_sizes":[],"default_left":[1,0,0,0,1,0,0,0,1,0,0,0,0,0,0,1,0,0,0,1,0,1,0,0,1,1,0,0,1,0,0,0,0,0,0,0,0,1,0,0,0,0,0,0,0,0,0,0,0,0,0,0,0,0,0,0,0,0,0,0,0],"id":17,"left_children":[1,3,5,7,9,11,13,-1,15,17,19,-1,-1,21,23,25,27,-1,29,31,-1,33,35,37,39,41,43,-1,45,47,49,-1,-1,51,53,55,-1,57,-1,-1,59,-1,-1,-1,-1,-1,-1,-1,-1,-1,-1,-1,-1,-1,-1,-1,-1,-1,-1,-1,-1],"loss_changes":[4.0288104E2,6.975037E1,7.684836E2,3.4293602E1,3.5636047E1,5.275592E1,1.323241E2,0E0,1.401508E1,1.2897278E2,6.157837E-1,0E0,0E0,2.1411676E2,2.683136E0,7.1381645E0,4.0205235E1,0E0,6.971406E1,1.8240675E0,0E0,3.8949272E1,1.6486816E0,2.9896685E1,3.140869E-1,1.5578656E1,1.5812283E0,0E0,1.3511171E0,1.0920667E2,9.4001465E0,0E0,0E0,2.9732513E0,3.6569107E1,1.630722E0,0E0,1.3121796E-1,0E0,0E0,9.538946E0,0E0,0E0,0E0,0E0,0E0,0E0,0E0,0E0,0E0,0E0,0E0,0E0,0E0,0E0,0E0,0E0,0E0,0E0,0E0,0E0],"parents":[2147483647,0,0,1,1,2,2,3,3,4,4,5,5,6,6,8,8,9,9,10,10,13,13,14,14,15,15,16,16,18,18,19,19,21,21,22,22,23,23,24,24,25,25,26,26,28,28,29,29,30,30,33,33,34,34,35,35,37,37,40,40],"right_children":[2,4,6,8,10,12,14,-1,16,18,20,-1,-1,22,24,26,28,-1,30,32,-1,34,36,38,40,42,44,-1,46,48,50,-1,-1,52,54,56,-1,58,-1,-1,60,-1,-1,-1,-1,-1,-1,-1,-1,-1,-1,-1,-1,-1,-1,-1,-1,-1,-1,-1,-1],"split_conditions":[1.6823791E-2,1.5251922E-2,1.7179111E1,1.4907086E-1,3.6128517E-2,8.8449067E-1,7.836606E-2,-1.23360656E-1,1.6588002E-2,4.573622E0,1.0955632E-3,-1.0955777E-1,1.0215449E-1,1.727924E-1,1.0368241E-1,1.8393196E-3,7.580071E-3,-1.0943522E-1,1.6458508E-2,4.273393E-4,-1.07983686E-1,4.161675E-2,4.1068335E0,2.2745453E-1,7.117094E-1,3.4906405E-3,1.0760279E-2,-1.3877998E-1,6.5939105E-3,3.7492704E-2,3.6128517E-2,4.1691825E-2,-8.207654E-2,2.6461577E-2,4.7081083E-2,3.4976844E-2,-1.0297187E-1,1.0832252E-1,-1.5544634E-1,1.0717314E-1,4.1068335E0,1.22874536E-1,-1.12718716E-1,1.4750725E-1,7.694516E-2,8.875178E-2,-4.66707E-3,-1.3351265E-1,5.3189028E-2,-1.0800361E-1,8.34334E-2,7.138786E-2,1.1067194E-1,-8.408609E-3,8.475682E-2,-1.3136481E-1,-1.8897797E-1,1.1043107E-1,7.821126E-2,9.887664E-2,-1.2117153E-1],"split_indices":[1,4,2,2,0,0,1,0,0,6,3,0,0,0,1,1,1,0,1,1,0,4,5,0,3,0,0,0,3,2,0,0,0,1,1,1,0,4,0,0,5,0,0,0,0,0,0,0,0,0,0,0,0,0,0,0,0,0,0,0,0],"split_type":[0,0,0,0,0,0,0,0,0,0,0,0,0,0,0,0,0,0,0,0,0,0,0,0,0,0,0,0,0,0,0,0,0,0,0,0,0,0,0,0,0,0,0,0,0,0,0,0,0,0,0,0,0,0,0,0,0,0,0,0,0],"sum_hessian":[2.5223472E3,1.3264285E3,1.1959186E3,7.839974E1,1.2480288E3,4.6675122E2,7.2916736E2,1.5103896E1,6.3295845E1,6.5135913E2,5.966696E2,4.5541473E2,1.13365E1,3.5983658E2,3.6933078E2,3.0652721E1,3.2643124E1,3.93621E2,2.577381E2,3.7174711E0,5.9295215E2,2.973966E2,6.2439976E1,4.883657E1,3.204942E2,9.264838E0,2.1387884E1,1.2726466E1,1.9916656E1,1.8631084E2,7.142727E1,1.0218337E0,2.6956375E0,1.1232552E2,1.8507108E2,4.863271E1,1.3807265E1,4.4670986E1,4.165585E0,2.971885E2,2.3305696E1,4.9146614E0,4.350177E0,1.0884035E1,1.0503849E1,1.8339283E1,1.5773726E0,3.8707916E1,1.4760292E2,6.946458E1,1.9626963E0,3.7334602E1,7.499092E1,1.2178058E2,6.329049E1,2.6199509E1,2.2433203E1,2.8559973E1,1.6111013E1,2.1990572E1,1.315125E0],"tree_param":{"num_deleted":"0","num_feature":"9","num_nodes":"61","size_leaf_vector":"0"}},{"base_weights":[-4.5034277E-1,-8.1639373E-1,-3.2332126E-2,7.573702E-2,-8.7662E-1,-1.0303441E0,5.886668E-1,-1.19629696E-1,3.7081033E-1,-7.113286E-1,-1.0672653E0,-1.0852405E-1,9.836869E-2,1.6446069E-1,1.0012918E0,8.127861E-1,-9.391583E-3,-1.0841042E-1,-1.9108094E-1,-4.4070357E-1,-1.07061625E-1,5.121977E-1,-1.4432611E0,7.279575E-1,1.0399106E0,9.753848E-2,1.1182481E0,-1.307916E-1,7.489243E-1,8.7896067E-1,-4.184495E-1,-8.021561E-2,4.109263E-2,8.6904943E-1,1.7963251E-1,-1.5347984E0,-1.0131457E-1,1.0014286E0,-1.5788738E-1,1.0562076E-1,7.9508334E-1,1.0105171E-1,-1.2171637E-1,1.3807435E-1,7.2838254E-2,8.4037215E-2,-6.5123655E-2,-9.174245E-2,1.1002829E-1,-7.8116365E-2,8.4574595E-3,7.103325E-2,1.239653E-1,-1.5184504E-1,8.219819E-2,-1.2796682E-1,-1.756348E-1,7.532623E-2,1.09254554E-1,9.672551E-2,-1.1553832E-1],"categories":[],"categories_nodes":[],"categories_segments":[],"categories_sizes":[],"default_left":[1,0,0,0,1,0,0,0,1,0,0,0,0,0,0,1,0,0,1,0,0,0,0,0,1,1,0,0,0,0,1,0,0,0,0,0,0,0,0,0,0,0,0,0,0,0,0,0,0,0,0,0,0,0,0,0,0,0,0,0,0],"id":18,"left_children":[1,3,5,7,9,11,13,-1,15,17,19,-1,-1,21,23,25,27,-1,29,31,-1,33,35,37,39,41,43,-1,45,47,49,-1,-1,51,53,55,-1,57,-1,-1,59,-1,-1,-1,-1,-1,-1,-1,-1,-1,-1,-1,-1,-1,-1,-1,-1,-1,-1,-1,-1],"loss_changes":[3.5876105E2,6.723169E1,6.797151E2,3.046101E1,3.6144165E1,4.757666E1,1.1817758E2,0E0,1.1044218E1,1.2202103E2,6.658325E-1,0E0,0E0,1.8778293E2,2.8587341E0,6.5290813E0,3.6718998E1,0E0,6.4670456E1,1.7400836E0,0E0,3.257583E1,7.9777527E-1,3.0434732E1,3.4835815E-1,1.345878E1,1.1633492E0,0E0,3.562624E0,1.955281E1,3.9961407E1,0E0,0E0,6.9300156E0,1.5834268E2,4.2768097E-1,0E0,1.154747E-1,0E0,0E0,8.717171E0,0E0,0E0,0E0,0E0,0E0,0E0,0E0,0E0,0E0,0E0,0E0,0E0,0E0,0E0,0E0,0E0,0E0,0E0,0E0,0E0],"parents":[2147483647,0,0,1,1,2,2,3,3,4,4,5,5,6,6,8,8,9,9,10,10,13,13,14,14,15,15,16,16,18,18,19,19,21,21,22,22,23,23,24,24,25,25,26,26,28,28,29,29,30,30,33,33,34,34,35,35,37,37,40,40],"right_children":[2,4,6,8,10,12,14,-1,16,18,20,-1,-1,22,24,26,28,-1,30,32,-1,34,36,38,40,42,44,-1,46,48,50,-1,-1,52,54,56,-1,58,-1,-1,60,-1,-1,-1,-1,-1,-1,-1,-1,-1,-1,-1,-1,-1,-1,-1,-1,-1,-1,-1,-1],"split_conditions":[1.7842742E-2,1.6173502E-2,1.7179111E1,1.4810649E-1,3.9214626E-2,5.860768E-1,7.782343E-2,-1.19629696E-1,1.6218448E-2,4.573622E0,1.0551893E-3,-1.0852405E-1,9.836869E-2,1.7119856E-1,1.0223813E-1,1.8447614E-3,6.815022E-3,-1.0841042E-1,3.2845198E-3,7.5599044E-3,-1.07061625E-1,9.0737864E-2,4.1068335E0,2.2451736E-1,7.1031827E-1,4.055167E-3,1.056149E-2,-1.307916E-1,3.9214626E-2,3.9257698E-2,3.9680135E-3,-8.021561E-2,4.109263E-2,3.3597466E-2,4.125937E-2,3.6466613E-2,-1.0131457E-1,4.9170488E-1,-1.5788738E-1,1.0562076E-1,4.1068335E0,1.0105171E-1,-1.2171637E-1,1.3807435E-1,7.2838254E-2,8.4037215E-2,-6.5123655E-2,-9.174245E-2,1.1002829E-1,-7.8116365E-2,8.4574595E-3,7.103325E-2,1.239653E-1,-1.5184504E-1,8.219819E-2,-1.2796682E-1,-1.756348E-1,7.532623E-2,1.09254554E-1,9.672551E-2,-1.1553832E-1],"split_indices":[1,4,2,2,0,0,1,0,0,6,3,0,0,0,1,1,1,0,3,1,0,0,5,0,3,0,0,0,0,2,1,0,0,1,1,1,0,3,0,0,5,0,0,0,0,0,0,0,0,0,0,0,0,0,0,0,0,0,0,0,0],"split_type":[0,0,0,0,0,0,0,0,0,0,0,0,0,0,0,0,0,0,0,0,0,0,0,0,0,0,0,0,0,0,0,0,0,0,0,0,0,0,0,0,0,0,0,0,0,0,0,0,0,0,0,0,0,0,0,0,0,0,0,0,0],"sum_hessian":[2.3438135E3,1.2490607E3,1.0947528E3,7.897322E1,1.1700875E3,4.1965802E2,6.750947E2,1.4294915E1,6.467831E1,6.292515E2,5.40836E2,4.0897186E2,1.068615E1,3.3356558E2,3.4152917E2,2.9383224E1,3.529508E1,3.6595108E2,2.6330045E2,3.5820255E0,5.3725397E2,2.7480823E2,5.8757347E1,4.4737526E1,2.9679163E2,9.188175E0,2.0195051E1,1.2745384E1,2.2549696E1,4.564065E1,2.1765979E2,2.5555015E0,1.0265242E0,1.3178552E2,1.4302272E2,4.6329205E1,1.2428141E1,4.050197E1,4.2355585E0,2.751613E2,2.1630362E1,5.5590987E0,3.629076E0,1.0550105E1,9.644945E0,2.1542507E1,1.007189E0,4.6613245E0,4.097933E1,1.26146645E2,9.151314E1,9.431171E1,3.7473816E1,3.8879333E1,1.0414338E2,2.4682047E1,2.164716E1,1.3365795E1,2.7136173E1,2.0339079E1,1.2912823E0],"tree_param":{"num_deleted":"0","num_feature":"9","num_nodes":"61","size_leaf_vector":"0"}},{"base_weights":[-4.3921387E-1,-1.0642478E0,-1.9715987E-1,-1.0961349E0,9.8179564E-2,-8.5706997E-1,4.2710355E-1,-1.2218353E0,-1.0757996E-1,-4.8145917E-1,-1.0802498E0,6.977686E-2,9.723838E-1,-1.4142774E-1,-1.060942E-1,-1.072222E-1,4.902239E-1,-1.2104307E0,-1.031613E0,3.5808945E-1,-1.2898912E0,-7.127989E-2,9.849803E-1,1.0090666E0,-9.235771E-1,-1.0485023E0,-1.4235269E0,3.5646583E-3,-1.036871E0,7.536753E-1,1.0424845E-1,-1.1392001E-1,-1.524226E0,7.533845E-1,1.0233792E0,5.836438E-2,1.2559497E-1,-1.07925616E-1,8.2594946E-2,-4.0596496E-2,-1.0591946E-1,-1.5678985E-1,-1.0113454E-1,-6.562655E-2,-1.0444023E-1,-9.1699354E-2,8.208912E-2,-1.3187587E-1,6.008012E-2,-1.6211985E-1,-9.228961E-2,9.786828E-2,-1.4043501E-1,1.0407565E-1,7.631267E-2],"categories":[],"categories_nodes":[],"categories_segments":[],"categories_sizes":[],"default_left":[0,0,1,0,0,1,0,0,0,0,0,0,0,0,0,0,0,1,0,0,0,0,0,0,0,0,0,0,0,0,0,0,0,0,1,0,0,0,0,0,0,0,0,0,0,0,0,0,0,0,0,0,0,0,0],"id":19,"left_children":[1,3,5,7,-1,9,11,13,-1,15,17,19,21,-1,-1,-1,23,25,27,29,31,-1,33,35,37,39,41,-1,43,45,47,-1,49,51,53,-1,-1,-1,-1,-1,-1,-1,-1,-1,-1,-1,-1,-1,-1,-1,-1,-1,-1,-1,-1],"loss_changes":[3.289753E2,4.0689514E1,6.469981E2,2.1490479E-1,0E0,6.3472656E1,1.572254E2,8.5113525E-1,0E0,1.6488736E2,1.7780762E0,1.9206421E2,7.484497E0,0E0,0E0,0E0,8.0848976E1,2.7950287E0,2.027954E0,4.0493736E1,1.2908173E0,0E0,2.0530396E0,7.687912E0,8.999794E0,8.114624E-2,1.4405746E0,0E0,3.2669067E-1,1.8469315E1,1.7551654E2,0E0,2.8775787E-1,2.5172688E1,4.2504883E-1,0E0,0E0,0E0,0E0,0E0,0E0,0E0,0E0,0E0,0E0,0E0,0E0,0E0,0E0,0E0,0E0,0E0,0E0,0E0,0E0],"parents":[2147483647,0,0,1,1,2,2,3,3,5,5,6,6,7,7,9,9,10,10,11,11,12,12,16,16,17,17,18,18,19,19,20,20,22,22,23,23,24,24,25,25,26,26,28,28,29,29,30,30,32,32,33,33,34,34],"right_children":[2,4,6,8,-1,10,12,14,-1,16,18,20,22,-1,-1,-1,24,26,28,30,32,-1,34,36,38,40,42,-1,44,46,48,-1,50,52,54,-1,-1,-1,-1,-1,-1,-1,-1,-1,-1,-1,-1,-1,-1,-1,-1,-1,-1,-1,-1],"split_conditions":[9.204842E0,9.1256773E-1,6.8099E-3,4.1068335E0,9.8179564E-2,1.5049813E-2,7.701083E-2,1.720657E-2,-1.0757996E-1,4.573622E0,3.7555695E-2,1.694706E-1,5.4025216E0,-1.4142774E-1,-1.060942E-1,-1.072222E-1,6.8099E-3,3.5371532E-4,9.4970333E-4,5.9730105E-2,3.435386E-2,-7.127989E-2,1.0558873E-1,1.7688967E-3,1.5049813E-2,1.186144E-2,4.1068335E0,3.5646583E-3,1.389965E-2,4.573622E0,2.659395E-2,-1.1392001E-1,4.1068335E0,2.3551127E-1,7.187649E-1,5.836438E-2,1.2559497E-1,-1.07925616E-1,8.2594946E-2,-4.0596496E-2,-1.0591946E-1,-1.5678985E-1,-1.0113454E-1,-6.562655E-2,-1.0444023E-1,-9.1699354E-2,8.208912E-2,-1.3187587E-1,6.008012E-2,-1.6211985E-1,-9.228961E-2,9.786828E-2,-1.4043501E-1,1.0407565E-1,7.631267E-2],"split_indices":[2,0,1,5,0,0,1,1,0,6,0,0,8,0,0,0,1,1,3,0,1,0,1,1,0,4,5,0,3,6,1,0,5,0,3,0,0,0,0,0,0,0,0,0,0,0,0,0,0,0,0,0,0,0,0],"split_type":[0,0,0,0,0,0,0,0,0,0,0,0,0,0,0,0,0,0,0,0,0,0,0,0,0,0,0,0,0,0,0,0,0,0,0,0,0,0,0,0,0,0,0,0,0,0,0,0,0,0,0,0,0,0,0],"sum_hessian":[2.1748271E3,6.061709E2,1.5686564E3,5.973259E2,8.844923E0,7.623751E2,8.062812E2,7.494961E1,5.2237634E2,2.8532742E2,4.7704773E2,4.8776965E2,3.1851154E2,3.0581448E1,4.4368164E1,1.7738042E2,1.0794702E2,1.2325546E2,3.5379227E2,4.030426E2,8.472705E1,1.9507381E0,3.165608E2,7.91767E1,2.8770323E1,7.340015E1,4.9855312E1,1.7061008E0,3.5208615E2,1.5676732E2,2.4627527E2,5.5134014E1,2.9593035E1,4.795415E1,2.6860666E2,3.0310492E1,4.8866203E1,2.6771238E1,1.9990851E0,1.8392804E0,7.156087E1,3.4846134E1,1.500918E1,8.541998E0,3.4354416E2,5.5742936E0,1.5119302E2,6.3278282E1,1.82997E2,2.4022984E1,5.570052E0,4.3915207E1,4.0389447E0,2.4898286E2,1.9623783E1],"tree_param":{"num_deleted":"0","num_feature":"9","num_nodes":"55","size_leaf_vector":"0"}},{"base_weights":[-4.2887276E-1,-1.0538069E0,-1.9203006E-1,-1.0861776E-1,9.407628E-2,-8.39469E-1,4.0786317E-1,-4.688592E-1,-1.0638658E0,4.1131567E-2,9.200447E-1,-1.06376745E-1,4.610121E-1,-1.1802762E0,-1.0183352E0,3.9803275E-1,-1.3035315E0,-6.943719E-2,9.316222E-1,9.341542E-1,-9.0665466E-1,-1.0351273E0,-1.3643394E0,-5.244949E-1,-1.0321864E-1,2.1343166E-1,8.376276E-1,-1.1366148E-1,-1.5928313E0,6.1798763E-1,1.0016114E0,5.3485908E-2,1.1894932E-1,-1.06411316E-1,7.991954E-2,-3.8723957E-2,-1.0464933E-1,-1.4784764E-1,-9.9766396E-2,-9.729543E-2,1.8963706E-1,6.0110707E-2,-1.2948948E-1,9.5559284E-2,4.0212553E-2,-1.723329E-1,-8.171531E-2,8.6721726E-2,-1.4683953E-1,1.01935975E-1,7.389187E-2],"categories":[],"categories_nodes":[],"categories_segments":[],"categories_sizes":[],"default_left":[0,0,1,0,0,1,0,0,0,0,0,0,0,1,0,0,0,0,0,0,0,0,0,0,0,0,0,0,0,0,1,0,0,0,0,0,0,0,0,0,0,0,0,0,0,0,0,0,0,0,0],"id":20,"left_children":[1,3,5,-1,-1,7,9,11,13,15,17,-1,19,21,23,25,27,-1,29,31,33,35,37,39,-1,41,43,-1,45,47,49,-1,-1,-1,-1,-1,-1,-1,-1,-1,-1,-1,-1,-1,-1,-1,-1,-1,-1,-1,-1],"loss_changes":[2.9869287E2,3.6841125E1,5.6958765E2,0E0,0E0,5.814923E1,1.429831E2,1.4860489E2,1.1220703E0,2.1396594E2,6.5842896E0,0E0,6.8897285E1,1.7132721E0,1.6644592E0,2.8405445E1,2.7056732E0,0E0,6.3137207E0,7.380028E0,8.246935E0,1.06925964E-1,5.5207825E-1,1.36039505E1,0E0,1.4661871E2,4.9499207E0,0E0,1.8031921E0,3.259292E1,4.4314575E-1,0E0,0E0,0E0,0E0,0E0,0E0,0E0,0E0,0E0,0E0,0E0,0E0,0E0,0E0,0E0,0E0,0E0,0E0,0E0,0E0],"parents":[2147483647,0,0,1,1,2,2,5,5,6,6,7,7,8,8,9,9,10,10,12,12,13,13,14,14,15,15,16,16,18,18,19,19,20,20,21,21,22,22,23,23,25,25,26,26,28,28,29,29,30,30],"right_children":[2,4,6,-1,-1,8,10,12,14,16,18,-1,20,22,24,26,28,-1,30,32,34,36,38,40,-1,42,44,-1,46,48,50,-1,-1,-1,-1,-1,-1,-1,-1,-1,-1,-1,-1,-1,-1,-1,-1,-1,-1,-1,-1],"split_conditions":[9.204842E0,6.000308E-1,6.812781E-3,-1.0861776E-1,9.407628E-2,1.52191715E-2,6.701081E-2,4.573622E0,3.8602628E-2,1.4570738E-1,5.4025216E0,-1.06376745E-1,6.812781E-3,3.5371532E-4,1.3656105E-2,3.4406096E-2,3.4406096E-2,-6.943719E-2,9.89236E-2,1.8514836E-3,1.52191715E-2,1.164552E-2,4.1068335E0,6.65593E-3,-1.0321864E-1,7.547119E-2,1.24826E-1,-1.1366148E-1,4.1068335E0,2.1809477E-1,7.18181E-1,5.3485908E-2,1.1894932E-1,-1.06411316E-1,7.991954E-2,-3.8723957E-2,-1.0464933E-1,-1.4784764E-1,-9.9766396E-2,-9.729543E-2,1.8963706E-1,6.0110707E-2,-1.2948948E-1,9.5559284E-2,4.0212553E-2,-1.723329E-1,-8.171531E-2,8.6721726E-2,-1.4683953E-1,1.01935975E-1,7.389187E-2],"split_indices":[2,0,1,0,0,0,1,6,0,0,8,0,1,1,3,1,1,0,1,1,0,4,5,1,0,0,0,0,5,0,3,0,0,0,0,0,0,0,0,0,0,0,0,0,0,0,0,0,0,0,0],"split_type":[0,0,0,0,0,0,0,0,0,0,0,0,0,0,0,0,0,0,0,0,0,0,0,0,0,0,0,0,0,0,0,0,0,0,0,0,0,0,0,0,0,0,0,0,0,0,0,0,0,0,0],"sum_hessian":[2.018411E3,5.5377325E2,1.4646378E3,5.453775E2,8.395721E0,7.0421234E2,7.604255E2,2.6674707E2,4.374653E2,4.437631E2,3.1666238E2,1.6258517E2,1.0416188E2,1.1598864E2,3.2147665E2,3.5124063E2,9.252248E1,1.8347942E0,3.1482758E2,7.762471E1,2.6537172E1,6.8552864E1,4.7435776E1,9.831078E0,3.1164557E2,2.4841013E2,1.028305E2,6.179663E1,3.0725847E1,5.923116E1,2.5559642E2,3.1484468E1,4.614024E1,2.4639061E1,1.8981109E0,1.7865274E0,6.676634E1,3.3862953E1,1.3572823E1,8.799152E0,1.031925E0,1.980962E2,5.031391E1,7.997366E1,2.285684E1,2.5255274E1,5.4705734E0,5.3432682E1,5.7984753E0,2.3672223E2,1.8874191E1],"tree_param":{"num_deleted":"0","num_feature":"9","num_nodes":"51","size_leaf_vector":"0"}},{"base_weights":[-4.186517E-1,-1.044985E0,-1.8682015E-1,-1.0774907E-1,9.2146926E-2,-8.24306E-1,3.8958222E-1,-4.554012E-1,-1.048545E0,4.418157E-2,9.0966845E-1,-1.0560363E-1,4.3436742E-1,-4.883804E-1,-1.0547544E0,3.50038E-1,-1.2605374E0,-6.763776E-2,9.2163825E-1,8.6675733E-1,-8.889568E-1,8.757856E-2,-9.341671E-2,-1.1324328E0,-1.0036376E0,7.934474E-1,1.744478E-1,-1.1143928E-1,-1.4938576E0,6.326846E-1,9.942026E-1,1.1361066E-1,4.7811836E-2,-1.04977086E-1,7.738941E-2,-1.2865548E-1,-1.0395867E-1,4.5104157E-2,-1.01135544E-1,-9.1268644E-2,9.027436E-2,6.87063E-2,-2.531314E-3,-1.5876012E-1,-8.463049E-2,8.8212155E-2,-1.5113427E-1,1.0156798E-1,6.9445446E-2],"categories":[],"categories_nodes":[],"categories_segments":[],"categories_sizes":[],"default_left":[0,0,1,0,0,1,0,0,0,0,0,0,0,1,0,1,0,0,0,0,0,0,0,0,0,0,0,0,0,0,1,0,0,0,0,0,0,0,0,0,0,0,0,0,0,0,0,0,0],"id":21,"left_children":[1,3,5,-1,-1,7,9,11,13,15,17,-1,19,21,23,25,27,-1,29,31,33,-1,-1,35,37,39,41,-1,43,45,47,-1,-1,-1,-1,-1,-1,-1,-1,-1,-1,-1,-1,-1,-1,-1,-1,-1,-1],"loss_changes":[2.7191098E2,3.3338684E1,5.0333264E2,0E0,0E0,5.33208E1,1.2922513E2,1.3279933E2,8.890991E-1,1.734178E2,6.074295E0,0E0,5.8278305E1,4.6422734E0,4.4543457E-1,2.7262226E1,1.1495667E0,0E0,5.3551025E0,7.4395523E0,7.5632973E0,0E0,0E0,8.137665E-1,3.2526703E0,1.9387253E1,2.596365E1,0E0,4.077072E-1,3.3439987E1,7.5190735E-1,0E0,0E0,0E0,0E0,0E0,0E0,0E0,0E0,0E0,0E0,0E0,0E0,0E0,0E0,0E0,0E0,0E0,0E0],"parents":[2147483647,0,0,1,1,2,2,5,5,6,6,7,7,8,8,9,9,10,10,12,12,13,13,14,14,15,15,16,16,18,18,19,19,20,20,23,23,24,24,25,25,26,26,28,28,29,29,30,30],"right_children":[2,4,6,-1,-1,8,10,12,14,16,18,-1,20,22,24,26,28,-1,30,32,34,-1,-1,36,38,40,42,-1,44,46,48,-1,-1,-1,-1,-1,-1,-1,-1,-1,-1,-1,-1,-1,-1,-1,-1,-1,-1],"split_conditions":[9.204842E0,5.9088886E-1,6.8115615E-3,-1.0774907E-1,9.2146926E-2,1.5011566E-2,6.980662E-2,4.573622E0,3.8605426E-3,1.527064E-1,5.4025216E0,-1.0560363E-1,6.8115615E-3,3.2202498E-4,6.8115615E-3,1.8769832E-2,3.4406096E-2,-6.763776E-2,1.0716802E-1,8.3043175E-3,1.5011566E-2,8.757856E-2,-9.341671E-2,3.6612082E-2,1.5012838E-2,4.573622E0,5.2511536E-2,-1.1143928E-1,4.1068335E0,2.3514663E-1,7.180475E-1,1.1361066E-1,4.7811836E-2,-1.04977086E-1,7.738941E-2,-1.2865548E-1,-1.0395867E-1,4.5104157E-2,-1.01135544E-1,-9.1268644E-2,9.027436E-2,6.87063E-2,-2.531314E-3,-1.5876012E-1,-8.463049E-2,8.8212155E-2,-1.5113427E-1,1.0156798E-1,6.9445446E-2],"split_indices":[2,0,1,0,0,0,1,6,3,0,8,0,1,1,1,4,1,0,1,0,0,0,0,0,3,6,0,0,5,0,3,0,0,0,0,0,0,0,0,0,0,0,0,0,0,0,0,0,0],"split_type":[0,0,0,0,0,0,0,0,0,0,0,0,0,0,0,0,0,0,0,0,0,0,0,0,0,0,0,0,0,0,0,0,0,0,0,0,0,0,0,0,0,0,0,0,0,0,0,0,0],"sum_hessian":[1.8729602E3,5.05029E2,1.3679312E3,4.9726126E2,7.7677097E0,6.493439E2,7.1858734E2,2.4663129E2,4.0271255E2,4.324637E2,2.8612363E2,1.4712694E2,9.950436E1,5.288396E0,3.9742416E2,3.509294E2,8.1534294E1,1.7274085E0,2.8439624E2,7.525888E1,2.424547E1,1.0649434E0,4.223452E0,1.4933586E2,2.480883E2,9.8549194E1,2.5238022E2,5.3684326E1,2.7849968E1,5.903521E1,2.2536102E2,4.331547E1,3.1943413E1,2.244364E1,1.8018293E0,5.13085E1,9.802736E1,1.0061485E0,2.4708215E2,5.490524E0,9.305867E1,7.008715E1,1.8229306E2,2.3059978E1,4.78999E0,5.3410034E1,5.625175E0,2.0806462E2,1.7296396E1],"tree_param":{"num_deleted":"0","num_feature":"9","num_nodes":"49","size_leaf_vector":"0"}},{"base_weights":[-4.0728417E-1,-1.036892E0,-1.8081759E-1,-1.06908455E-1,9.356578E-2,-7.362477E-1,4.4295081E-1,-3.9677307E-1,-1.0410606E0,1.0551679E-1,9.179766E-1,-1.0504302E-1,2.6845038E-1,-1.1354616E0,-9.656643E-1,3.7318644E-1,-1.2040228E0,-6.588065E-2,9.3089306E-1,-6.9663817E-1,6.8890834E-1,-1.4441386E0,-1.0506252E-1,1.4684197E-1,-9.897395E-1,8.630129E-1,1.5260015E-1,-1.2362013E-1,-3.4787613E-1,1.0572495E-1,8.1636906E-1,1.1856613E-1,-1.0874698E-1,9.591023E-2,2.5850434E-2,-1.2232399E-1,-1.9595991E-1,-1.0218366E-1,-3.229562E-2,-5.787736E-2,8.8787295E-2,-1.3646097E-1,5.3826656E-2,2.4932638E-2,-6.942057E-2,9.33839E-2,-1.8286656E-1],"categories":[],"categories_nodes":[],"categories_segments":[],"categories_sizes":[],"default_left":[0,0,1,0,0,1,0,0,0,0,0,0,1,0,0,0,0,0,1,1,0,0,0,0,0,0,0,0,1,0,0,0,0,0,0,0,0,0,0,0,0,0,0,0,0,0,0],"id":22,"left_children":[1,3,5,-1,-1,7,9,11,13,15,17,-1,19,21,23,25,27,-1,29,31,33,35,-1,-1,37,39,41,-1,43,-1,45,-1,-1,-1,-1,-1,-1,-1,-1,-1,-1,-1,-1,-1,-1,-1,-1],"loss_changes":[2.4856003E2,3.0293121E1,4.4527048E2,0E0,0E0,6.992172E1,9.6965195E1,1.4081465E2,1.4482117E0,1.2494671E2,5.732727E0,0E0,6.580021E1,2.49115E0,1.3493454E1,3.181422E1,1.2370911E0,0E0,2.7508087E0,3.7591858E1,1.2849903E1,1.0564194E0,0E0,0E0,4.036911E0,3.7966995E0,1.207297E2,0E0,9.142851E-1,0E0,4.3775543E1,0E0,0E0,0E0,0E0,0E0,0E0,0E0,0E0,0E0,0E0,0E0,0E0,0E0,0E0,0E0,0E0],"parents":[2147483647,0,0,1,1,2,2,5,5,6,6,7,7,8,8,9,9,10,10,12,12,13,13,14,14,15,15,16,16,18,18,19,19,20,20,21,21,24,24,25,25,26,26,28,28,30,30],"right_children":[2,4,6,-1,-1,8,10,12,14,16,18,-1,20,22,24,26,28,-1,30,32,34,36,-1,-1,38,40,42,-1,44,-1,46,-1,-1,-1,-1,-1,-1,-1,-1,-1,-1,-1,-1,-1,-1,-1,-1],"split_conditions":[9.204842E0,8.727369E-1,1.1831377E-2,-1.06908455E-1,9.356578E-2,2.5559995E-2,7.646493E-2,4.573622E0,1.1323691E-2,1.6645102E-1,5.4025216E0,-1.0504302E-1,3.242657E-4,3.7473638E-2,1.420722E-2,5.9973493E-2,2.3261228E0,-6.588065E-2,9.943838E-2,7.199257E-4,1.5447152E-2,7.087389E-3,-1.0506252E-1,1.4684197E-1,7.2911575E1,4.573622E0,2.6785372E-2,-1.2362013E-1,2.7479842E0,1.0572495E-1,4.1068335E0,1.1856613E-1,-1.0874698E-1,9.591023E-2,2.5850434E-2,-1.2232399E-1,-1.9595991E-1,-1.0218366E-1,-3.229562E-2,-5.787736E-2,8.8787295E-2,-1.3646097E-1,5.3826656E-2,2.4932638E-2,-6.942057E-2,9.33839E-2,-1.8286656E-1],"split_indices":[2,0,1,0,0,0,1,6,1,0,8,0,1,0,3,0,4,0,4,0,0,1,0,0,3,6,1,0,3,0,5,0,0,0,0,0,0,0,0,0,0,0,0,0,0,0,0],"split_type":[0,0,0,0,0,0,0,0,0,0,0,0,0,0,0,0,0,0,0,0,0,0,0,0,0,0,0,0,0,0,0,0,0,0,0,0,0,0,0,0,0,0,0,0,0,0,0],"sum_hessian":[1.7435543E3,4.602945E2,1.2832598E3,4.5335367E2,6.9408264E0,6.78719E2,6.0454083E2,3.2219135E2,3.5652762E2,3.5417508E2,2.5036574E2,1.6221638E2,1.5997498E2,1.520684E2,2.0445921E2,2.9466138E2,5.951371E1,1.6279517E0,2.487378E2,4.8346676E1,1.11628296E2,2.932969E1,1.22738716E2,1.414895E0,2.0304431E2,9.0589355E1,2.04072E2,5.693006E1,2.5836453E0,1.14345985E2,1.343918E2,7.962841E0,4.0383835E1,6.7822876E1,4.380542E1,2.2892355E1,6.4373355E0,1.9321117E2,9.833155E0,1.1578399E0,8.943151E1,4.084594E1,1.6322607E2,1.0511523E0,1.5324931E0,1.292965E2,5.095303E0],"tree_param":{"num_deleted":"0","num_feature":"9","num_nodes":"47","size_leaf_vector":"0"}},{"base_weights":[-3.9791045E-1,-1.0291886E0,-1.7613563E-1,-1.0623822E-1,8.895703E-2,-7.9416084E-1,3.570078E-1,-4.26372E-1,-1.0246539E0,3.222944E-2,8.6574084E-1,-1.04266666E-1,3.885838E-1,-4.343921E-1,-1.0319777E0,3.3043614E-1,-1.2257723E0,9.887305E-1,6.54759E-1,-5.464002E-1,8.8205034E-1,8.806269E-2,-8.991656E-2,-1.1101472E0,-9.7905964E-1,1.5488797E-1,7.65377E-1,-1.2516872E0,-4.6174017E-1,8.539228E-1,1.04396775E-1,8.0451256E-1,-1.4541273E-1,1.0992934E-1,-1.1017316E-1,1.1513616E-1,5.5252697E-2,-1.2478856E-1,-1.02082446E-1,4.155315E-2,-9.8810956E-2,4.9445163E-2,-1.2581244E-1,8.7023124E-2,2.4418557E-2,-1.1064404E-1,-1.4656663E-1,1.5830262E-2,-7.4923955E-2,9.4073474E-2,-6.7914546E-2,2.5699139E-2,9.856548E-2],"categories":[],"categories_nodes":[],"categories_segments":[],"categories_sizes":[],"default_left":[0,0,1,0,0,1,0,0,0,0,1,0,1,1,0,0,0,0,0,1,0,0,0,0,0,0,1,0,1,0,0,0,0,0,0,0,0,0,0,0,0,0,0,0,0,0,0,0,0,0,0,0,0],"id":23,"left_children":[1,3,5,-1,-1,7,9,11,13,15,17,-1,19,21,23,25,27,29,31,33,35,-1,-1,37,39,41,43,45,47,49,-1,51,-1,-1,-1,-1,-1,-1,-1,-1,-1,-1,-1,-1,-1,-1,-1,-1,-1,-1,-1,-1,-1],"loss_changes":[2.2637656E2,2.772705E1,3.9526654E2,0E0,0E0,4.6653473E1,1.0642014E2,1.0875093E2,1.0248413E0,1.4831023E2,5.8656464E0,0E0,4.3675316E1,4.399822E0,3.0245972E-1,2.4276218E1,9.2211914E-1,2.7467346E-1,3.1296494E1,3.1331657E1,4.8357277E0,0E0,0E0,3.0236816E-1,3.0451813E0,1.1044047E2,4.79443E0,6.375885E-1,8.4412634E-1,7.4278297E0,0E0,8.644344E0,0E0,0E0,0E0,0E0,0E0,0E0,0E0,0E0,0E0,0E0,0E0,0E0,0E0,0E0,0E0,0E0,0E0,0E0,0E0,0E0,0E0],"parents":[2147483647,0,0,1,1,2,2,5,5,6,6,7,7,8,8,9,9,10,10,12,12,13,13,14,14,15,15,16,16,17,17,18,18,19,19,20,20,23,23,24,24,25,25,26,26,27,27,28,28,29,29,31,31],"right_children":[2,4,6,-1,-1,8,10,12,14,16,18,-1,20,22,24,26,28,30,32,34,36,-1,-1,38,40,42,44,46,48,50,-1,52,-1,-1,-1,-1,-1,-1,-1,-1,-1,-1,-1,-1,-1,-1,-1,-1,-1,-1,-1,-1,-1],"split_conditions":[9.361099E0,5.71725E-1,6.83967E-3,-1.0623822E-1,8.895703E-2,1.5048001E-2,6.661372E-2,4.573622E0,3.8441133E-3,1.453437E-1,1.9563485E-2,-1.04266666E-1,3.297075E-4,2.8481605E-4,6.83967E-3,3.481359E-2,2.3246999E0,1.1053377E0,4.1068335E0,7.199257E-4,8.263008E-3,8.806269E-2,-8.991656E-2,3.6340438E-2,1.48138255E-2,7.642655E-2,4.0708724E-1,3.481359E-2,2.584232E0,4.1068335E0,1.04396775E-1,9.89236E-2,-1.4541273E-1,1.0992934E-1,-1.1017316E-1,1.1513616E-1,5.5252697E-2,-1.2478856E-1,-1.02082446E-1,4.155315E-2,-9.8810956E-2,4.9445163E-2,-1.2581244E-1,8.7023124E-2,2.4418557E-2,-1.1064404E-1,-1.4656663E-1,1.5830262E-2,-7.4923955E-2,9.4073474E-2,-6.7914546E-2,2.5699139E-2,9.856548E-2],"split_indices":[2,0,1,0,0,0,1,6,3,0,3,0,1,1,1,1,4,4,5,0,0,0,0,0,3,0,4,1,3,5,0,1,0,0,0,0,0,0,0,0,0,0,0,0,0,0,0,0,0,0,0,0,0],"split_type":[0,0,0,0,0,0,0,0,0,0,0,0,0,0,0,0,0,0,0,0,0,0,0,0,0,0,0,0,0,0,0,0,0,0,0,0,0,0,0,0,0,0,0,0,0,0,0,0,0,0,0,0,0],"sum_hessian":[1.6172516E3,4.1950296E2,1.1977487E3,4.128079E2,6.6950464E0,5.544894E2,6.432593E2,2.1471956E2,3.3976984E2,3.9326184E2,2.4999745E2,1.22102486E2,9.261707E1,4.903267E0,3.3486658E2,3.184995E2,7.476232E1,1.5560362E2,9.439382E1,3.195805E1,6.0659023E1,1.0467821E0,3.8564847E0,1.2711544E2,2.0775114E2,2.2788005E2,9.061945E1,7.169235E1,3.0699654E0,5.0010662E1,1.05592964E2,8.8712776E1,5.6810465E0,7.8160615E0,2.4141989E1,3.2006714E1,2.865231E1,4.4903072E1,8.2212364E1,1.0498695E0,2.0670128E2,1.8425215E2,4.3627907E1,7.488438E1,1.5735077E1,4.638054E1,2.5311813E1,1.1148901E0,1.9550754E0,4.7696175E1,2.3144846E0,2.2654856E1,6.605792E1],"tree_param":{"num_deleted":"0","num_feature":"9","num_nodes":"53","size_leaf_vector":"0"}},{"base_weights":[-3.883176E-1,-1.0225232E0,-1.7131406E-1,-1.05516925E-1,9.057631E-2,-8.2298106E-1,3.1021112E-1,-4.1643897E-1,-1.0220921E0,2.6638892E-2,8.900949E-1,-1.0349925E-1,4.773929E-1,-9.422124E-2,-1.0277455E0,2.302422E-1,-1.1512594E0,-6.047641E-2,9.0258104E-1,-7.554462E-1,8.496419E-1,-5.4825287E-2,4.1412354E-2,-1.1333767E0,-9.699589E-1,7.5997406E-1,8.047504E-2,-1.16781786E-1,-5.453826E-1,7.462967E-1,1.0151755E0,6.5920316E-2,-9.980787E-2,4.7300547E-2,1.2162056E-1,-1.2921363E-1,-1.0029522E-1,6.719739E-2,-9.8340236E-2,-9.364498E-2,9.4753005E-2,4.0635068E-2,-1.477316E-2,-1.1704382E-2,-6.7743085E-2,8.415731E-2,-1.6085377E-1,6.282999E-2,1.0309156E-1],"categories":[],"categories_nodes":[],"categories_segments":[],"categories_sizes":[],"default_left":[0,0,1,0,0,1,0,0,0,0,0,0,1,0,0,1,1,0,0,1,0,0,0,0,0,0,0,0,0,0,0,0,0,0,0,0,0,0,0,0,0,0,0,0,0,0,0,0,0],"id":24,"left_children":[1,3,5,-1,-1,7,9,11,13,15,17,-1,19,21,23,25,27,-1,29,31,33,-1,-1,35,37,39,41,-1,43,45,47,-1,-1,-1,-1,-1,-1,-1,-1,-1,-1,-1,-1,-1,-1,-1,-1,-1,-1],"loss_changes":[2.0656566E2,2.5051178E1,3.5184308E2,0E0,0E0,3.8135986E1,1.0604935E2,8.8015305E1,1.5769348E0,1.0440709E2,4.499405E0,0E0,3.066813E1,9.271456E-1,8.359375E-1,2.9378912E1,6.8206787E-3,0E0,2.9458618E0,6.047904E0,6.4278107E0,0E0,0E0,9.025574E-1,5.3375244E0,2.687275E1,2.1656832E1,0E0,1.2337935E-1,2.1974277E1,8.029938E-2,0E0,0E0,0E0,0E0,0E0,0E0,0E0,0E0,0E0,0E0,0E0,0E0,0E0,0E0,0E0,0E0,0E0,0E0],"parents":[2147483647,0,0,1,1,2,2,5,5,6,6,7,7,8,8,9,9,10,10,12,12,13,13,14,14,15,15,16,16,18,18,19,19,20,20,23,23,24,24,25,25,26,26,28,28,29,29,30,30],"right_children":[2,4,6,-1,-1,8,10,12,14,16,18,-1,20,22,24,26,28,-1,30,32,34,-1,-1,36,38,40,42,-1,44,46,48,-1,-1,-1,-1,-1,-1,-1,-1,-1,-1,-1,-1,-1,-1,-1,-1,-1,-1],"split_conditions":[9.204842E0,9.064583E-1,5.2095414E-3,-1.05516925E-1,9.057631E-2,1.1084545E-2,7.701083E-2,4.573622E0,1.5270995E-3,1.6969413E-1,5.4025216E0,-1.0349925E-1,3.1370226E-5,2.5902141E-3,5.0224373E-3,1.0290848E-2,2.2959962E0,-6.047641E-2,1.9699177E-1,1.2289152E-4,1.7921939E-3,-5.4825287E-2,4.1412354E-2,3.6366973E-2,1.3659417E-2,4.573622E0,6.2441755E-2,-1.16781786E-1,2.907674E0,4.4606242E-1,2.1487176E-2,6.5920316E-2,-9.980787E-2,4.7300547E-2,1.2162056E-1,-1.2921363E-1,-1.0029522E-1,6.719739E-2,-9.8340236E-2,-9.364498E-2,9.4753005E-2,4.0635068E-2,-1.477316E-2,-1.1704382E-2,-6.7743085E-2,8.415731E-2,-1.6085377E-1,6.282999E-2,1.0309156E-1],"split_indices":[2,0,1,0,0,0,1,6,3,0,8,0,1,1,1,4,4,0,1,0,1,0,0,0,3,6,0,0,4,0,3,0,0,0,0,0,0,0,0,0,0,0,0,0,0,0,0,0,0],"split_type":[0,0,0,0,0,0,0,0,0,0,0,0,0,0,0,0,0,0,0,0,0,0,0,0,0,0,0,0,0,0,0,0,0,0,0,0,0,0,0,0,0,0,0,0,0,0,0,0,0],"sum_hessian":[1.5012058E3,3.8176462E2,1.1194412E3,3.7585416E2,5.9104557E0,4.7538068E2,6.440605E2,1.5729973E2,3.1808093E2,4.3324356E2,2.1081694E2,9.287206E1,6.4427666E1,2.0333064E0,3.1604764E2,3.7007886E2,6.3164722E1,1.353384E0,2.0946356E2,1.4703205E1,4.9724464E1,1.0325612E0,1.0007452E0,1.0517665E2,2.1087097E2,8.067039E1,2.8940845E2,6.0581562E1,2.583159E0,9.0908325E1,1.1855524E2,1.9012487E0,1.2801956E1,2.5654934E1,2.4069529E1,4.3418365E1,6.1758286E1,1.314689E0,2.0955629E2,7.63348E0,7.303691E1,1.18875465E2,1.7053299E2,1.0531895E0,1.5299695E0,8.799084E1,2.9174848E0,6.2345343E0,1.123207E2],"tree_param":{"num_deleted":"0","num_feature":"9","num_nodes":"49","size_leaf_vector":"0"}},{"base_weights":[-3.7666777E-1,-1.0158468E0,-1.6506045E-1,-1.049716E-1,8.571269E-2,-6.955975E-1,3.9627025E-1,-3.530771E-1,-1.0173897E0,1.1425087E-1,8.9357954E-1,-1.0332253E-1,2.3808359E-1,-9.419053E-1,-1.1592757E0,3.1119987E-1,-1.2017117E0,-5.5951275E-2,9.056315E-1,-6.5103465E-1,5.890932E-1,2.583331E-1,-9.6606606E-1,-1.452261E0,-1.0592999E-1,8.5837567E-1,1.5274972E-1,-1.2328728E0,-4.1172862E-1,7.5715876E-1,1.0147958E-1,1.00382306E-1,-1.0555635E-1,1.0170486E-1,3.6709413E-2,-7.506978E-2,1.766202E-1,-9.7620904E-2,1.9055141E-2,-1.14186004E-1,-1.8148296E-1,-4.669094E-3,9.477895E-2,8.599812E-2,-3.860092E-4,-1.1292156E-1,-1.73303E-1,-1.1516099E-3,-5.9809156E-2,8.312178E-2,-1.300188E-1],"categories":[],"categories_nodes":[],"categories_segments":[],"categories_sizes":[],"default_left":[0,0,1,0,0,1,0,0,1,0,0,0,1,0,0,1,0,0,0,1,0,0,1,0,0,0,0,0,1,0,0,0,0,0,0,0,0,0,0,0,0,0,0,0,0,0,0,0,0,0,0],"id":25,"left_children":[1,3,5,-1,-1,7,9,11,13,15,17,-1,19,21,23,25,27,-1,29,31,33,35,37,39,-1,41,43,45,47,49,-1,-1,-1,-1,-1,-1,-1,-1,-1,-1,-1,-1,-1,-1,-1,-1,-1,-1,-1,-1,-1],"loss_changes":[1.8952342E2,2.301538E1,3.1441486E2,0E0,0E0,5.945285E1,7.187236E1,1.0655303E2,1.8990479E0,8.554542E1,3.7563782E0,0E0,4.478241E1,5.6902924E0,1.1753159E0,2.4720318E1,5.505562E-1,0E0,2.220642E0,2.833365E1,9.366806E0,8.159275E0,2.346115E0,2.7698517E-1,0E0,5.2355003E0,2.4756735E1,1.6104126E-1,2.267595E-1,1.3586693E1,0E0,0E0,0E0,0E0,0E0,0E0,0E0,0E0,0E0,0E0,0E0,0E0,0E0,0E0,0E0,0E0,0E0,0E0,0E0,0E0,0E0],"parents":[2147483647,0,0,1,1,2,2,5,5,6,6,7,7,8,8,9,9,10,10,12,12,13,13,14,14,15,15,16,16,18,18,19,19,20,20,21,21,22,22,23,23,25,25,26,26,27,27,28,28,29,29],"right_children":[2,4,6,-1,-1,8,10,12,14,16,18,-1,20,22,24,26,28,-1,30,32,34,36,38,40,-1,42,44,46,48,50,-1,-1,-1,-1,-1,-1,-1,-1,-1,-1,-1,-1,-1,-1,-1,-1,-1,-1,-1,-1,-1],"split_conditions":[9.361099E0,5.7360536E-1,1.17891235E-2,-1.049716E-1,8.571269E-2,2.5559995E-2,8.3785065E-2,4.573622E0,1.4941095E-3,1.8292192E-1,5.4025216E0,-1.0332253E-1,3.3567104E-4,1.4229445E-2,3.727952E-2,2.044832E-2,2.2917838E0,-5.5951275E-2,2.1893628E-1,7.2714797E-4,9.757391E-3,1.4941095E-3,1.3233114E-3,6.893447E-3,-1.0592999E-1,1.3124599E-2,5.353047E-2,6.989492E-2,3.172084E0,4.9082685E-1,1.0147958E-1,1.00382306E-1,-1.0555635E-1,1.0170486E-1,3.6709413E-2,-7.506978E-2,1.766202E-1,-9.7620904E-2,1.9055141E-2,-1.14186004E-1,-1.8148296E-1,-4.669094E-3,9.477895E-2,8.599812E-2,-3.860092E-4,-1.1292156E-1,-1.73303E-1,-1.1516099E-3,-5.9809156E-2,8.312178E-2,-1.300188E-1],"split_indices":[2,0,1,0,0,0,1,6,1,0,8,0,1,3,0,4,4,0,1,0,0,1,1,1,0,1,0,1,3,0,0,0,0,0,0,0,0,0,0,0,0,0,0,0,0,0,0,0,0,0,0],"split_type":[0,0,0,0,0,0,0,0,0,0,0,0,0,0,0,0,0,0,0,0,0,0,0,0,0,0,0,0,0,0,0,0,0,0,0,0,0,0,0,0,0,0,0,0,0,0,0,0,0,0,0],"sum_hessian":[1.4014706E3,3.4762802E2,1.0538427E3,3.4188522E2,5.742808E0,5.4165894E2,5.1218365E2,2.633948E2,2.7826413E2,3.2762207E2,1.8456161E2,1.2213129E2,1.412635E2,1.8661958E2,9.164455E1,2.8563675E2,4.198532E1,1.1445041E0,1.834171E2,3.9741734E1,1.0152178E2,3.491261E0,1.8312833E2,1.9874615E1,7.176993E1,6.3148552E1,2.2248819E2,3.985268E1,2.132639E0,8.1078865E1,1.0233824E2,7.5155306E0,3.22262E1,3.3452637E1,6.806914E1,2.3924413E0,1.0988196E0,1.8169096E2,1.4373622E0,1.2943139E1,6.9314756E0,5.720648E0,5.7427906E1,3.9521683E1,1.829665E2,3.5709606E1,4.1430755E0,1.0149144E0,1.1177245E0,7.883692E1,2.241944E0],"tree_param":{"num_deleted":"0","num_feature":"9","num_nodes":"51","size_leaf_vector":"0"}},{"base_weights":[-3.6558962E-1,-1.0098406E0,-1.5938953E-1,-1.04337215E-1,8.770763E-2,-8.0079144E-1,2.8048554E-1,-3.7947568E-1,-9.9482846E-1,-4.0179122E-2,7.4564826E-1,-1.02325775E-1,4.4433576E-1,-1.1125833E0,-9.327882E-1,3.0989E-1,-1.2736632E0,5.636387E-1,1.0130374E0,7.54607E-1,-7.491931E-1,-1.2545614E-1,-9.842842E-2,5.191529E-1,-9.59214E-1,9.086109E-2,7.2796243E-1,-1.1041754E-1,-2.0427938E0,6.850218E-1,-1.2802364E0,1.020058E-1,3.0317847E-2,4.244935E-2,1.1139959E-1,-9.668181E-2,6.330324E-2,-5.6539025E-2,1.8298954E-1,-9.728701E-2,-5.5087756E-2,4.3357354E-2,-1.3289419E-1,1.1254392E-1,5.4696452E-2,-2.59109E-1,-1.0167911E-1,3.743271E-2,9.816969E-2,1.4860446E-2,-1.4995039E-1],"categories":[],"categories_nodes":[],"categories_segments":[],"categories_sizes":[],"default_left":[0,0,1,0,0,1,0,0,0,0,0,0,0,0,0,0,0,0,1,0,0,0,0,0,0,0,0,0,0,0,0,0,0,0,0,0,0,0,0,0,0,0,0,0,0,0,0,0,0,0,0],"id":26,"left_children":[1,3,5,-1,-1,7,9,11,13,15,17,-1,19,21,23,25,27,29,31,33,35,-1,-1,37,39,41,43,-1,45,47,49,-1,-1,-1,-1,-1,-1,-1,-1,-1,-1,-1,-1,-1,-1,-1,-1,-1,-1,-1,-1],"loss_changes":[1.7377232E2,2.0988892E1,2.803959E2,0E0,0E0,3.266916E1,8.800491E1,6.891452E1,9.7961426E-1,1.5155818E2,1.1144409E1,0E0,2.17925E1,4.0641022E-1,7.6748962E0,2.4977211E1,7.8582306E0,3.343838E1,1.7036438E-1,4.9836655E0,4.3205667E0,0E0,0E0,6.709993E0,4.90448E-1,8.845755E1,6.138386E0,0E0,4.584797E0,1.2274277E1,3.1472425E0,0E0,0E0,0E0,0E0,0E0,0E0,0E0,0E0,0E0,0E0,0E0,0E0,0E0,0E0,0E0,0E0,0E0,0E0,0E0,0E0],"parents":[2147483647,0,0,1,1,2,2,5,5,6,6,7,7,8,8,9,9,10,10,12,12,13,13,14,14,15,15,16,16,17,17,18,18,19,19,20,20,23,23,24,24,25,25,26,26,28,28,29,29,30,30],"right_children":[2,4,6,-1,-1,8,10,12,14,16,18,-1,20,22,24,26,28,30,32,34,36,-1,-1,38,40,42,44,-1,46,48,50,-1,-1,-1,-1,-1,-1,-1,-1,-1,-1,-1,-1,-1,-1,-1,-1,-1,-1,-1,-1],"split_conditions":[9.361099E0,9.211601E-1,5.187944E-3,-1.04337215E-1,8.770763E-2,1.0123649E-2,5.154213E-2,4.573622E0,4.69369E-3,1.1312933E-1,2.1573386E0,-1.02325775E-1,4.69369E-3,3.638077E-2,1.4083826E-2,2.5891794E-2,3.8569875E-2,4.1068335E0,4.8723235E0,1.8377351E-3,1.0123649E-2,-1.2545614E-1,-9.842842E-2,7.350468E-2,7.2445124E-1,5.74236E-2,7.350468E-2,-1.1041754E-1,1.625371E-1,1.0889899E-1,7.8824066E-2,1.020058E-1,3.0317847E-2,4.244935E-2,1.1139959E-1,-9.668181E-2,6.330324E-2,-5.6539025E-2,1.8298954E-1,-9.728701E-2,-5.5087756E-2,4.3357354E-2,-1.3289419E-1,1.1254392E-1,5.4696452E-2,-2.59109E-1,-1.0167911E-1,3.743271E-2,9.816969E-2,1.4860446E-2,-1.4995039E-1],"split_indices":[2,0,1,0,0,0,1,6,1,0,4,0,1,0,3,1,1,5,3,1,0,0,0,0,0,0,0,0,0,1,4,0,0,0,0,0,0,0,0,0,0,0,0,0,0,0,0,0,0,0,0],"split_type":[0,0,0,0,0,0,0,0,0,0,0,0,0,0,0,0,0,0,0,0,0,0,0,0,0,0,0,0,0,0,0,0,0,0,0,0,0,0,0,0,0,0,0,0,0,0,0,0,0,0,0],"sum_hessian":[1.3082986E3,3.162647E2,9.920338E2,3.1118185E2,5.082836E0,4.032362E2,5.887976E2,1.2808305E2,2.7515314E2,3.4907373E2,2.3972389E2,7.176159E1,5.632147E1,8.910164E1,1.8605151E2,2.7248877E2,7.658495E1,1.4448328E2,9.524062E1,4.4992825E1,1.1328642E1,3.812901E1,5.097263E1,2.992375E0,1.8305914E2,1.7960875E2,9.288003E1,6.47517E1,1.1833253E1,1.36149E2,8.334264E0,9.3875206E1,1.3654196E0,2.458846E1,2.0404364E1,1.0047279E1,1.2813625E0,1.9486549E0,1.0437199E0,1.7579738E2,7.261764E0,1.4524426E2,3.436448E1,2.7428427E1,6.54516E1,6.7178235E0,5.1154294E0,6.760793E1,6.854108E1,1.1516815E0,7.1825824E0],"tree_param":{"num_deleted":"0","num_feature":"9","num_nodes":"51","size_leaf_vector":"0"}},{"base_weights":[-3.5561752E-1,-1.0041511E0,-1.5444183E-1,-1.0389308E-1,8.2482524E-2,-7.82606E-1,2.6566944E-1,-3.835989E-1,-9.8567265E-1,1.2601535E-3,7.977107E-1,-1.0193183E-1,4.0730244E-1,-1.8381274E-3,-9.925616E-1,2.4349375E-1,-1.1400012E0,9.4826984E-1,5.5513036E-1,6.9703984E-1,-7.4853384E-1,-1.108105E0,-9.2588985E-1,6.896783E-2,7.344783E-1,-1.1855572E0,4.3431006E-2,2.6192075E-1,9.599005E-1,7.041706E-1,-1.3813032E-1,3.429472E-2,1.0900817E-1,-9.591659E-2,6.150032E-2,-1.2580547E-1,-9.7887956E-2,5.4428786E-2,-9.462147E-2,3.4111235E-2,-1.2308557E-1,1.1188908E-1,5.6854594E-2,-1.0401404E-1,-1.4042674E-1,6.020346E-2,-4.4378623E-2,-2.1776242E-2,5.7724755E-2,1.0165621E-1,7.726708E-2,2.2396078E-2,9.588486E-2],"categories":[],"categories_nodes":[],"categories_segments":[],"categories_sizes":[],"default_left":[0,0,1,0,0,1,0,0,0,0,1,0,0,0,0,0,0,0,0,0,0,0,0,0,0,0,0,0,1,0,0,0,0,0,0,0,0,0,0,0,0,0,0,0,0,0,0,0,0,0,0,0,0],"id":27,"left_children":[1,3,5,-1,-1,7,9,11,13,15,17,-1,19,-1,21,23,25,27,29,31,33,35,37,39,41,43,45,47,49,51,-1,-1,-1,-1,-1,-1,-1,-1,-1,-1,-1,-1,-1,-1,-1,-1,-1,-1,-1,-1,-1,-1,-1],"loss_changes":[1.590063E2,1.9217834E1,2.4623346E2,0E0,0E0,2.991513E1,7.8693146E1,6.464028E1,1.6285706E0,1.0386067E2,6.2562103E0,0E0,1.9823318E1,0E0,8.642273E-1,2.6505236E1,3.5978165E0,6.520386E-1,2.2194653E1,6.111845E0,4.0461564E0,4.0975952E-1,5.345978E0,8.16882E1,4.541271E0,5.550003E-1,1.1933304E0,6.189759E-1,3.9120483E-1,8.21653E0,0E0,0E0,0E0,0E0,0E0,0E0,0E0,0E0,0E0,0E0,0E0,0E0,0E0,0E0,0E0,0E0,0E0,0E0,0E0,0E0,0E0,0E0,0E0],"parents":[2147483647,0,0,1,1,2,2,5,5,6,6,7,7,8,8,9,9,10,10,12,12,14,14,15,15,16,16,17,17,18,18,19,19,20,20,21,21,22,22,23,23,24,24,25,25,26,26,27,27,28,28,29,29],"right_children":[2,4,6,-1,-1,8,10,12,14,16,18,-1,20,-1,22,24,26,28,30,32,34,36,38,40,42,44,46,48,50,52,-1,-1,-1,-1,-1,-1,-1,-1,-1,-1,-1,-1,-1,-1,-1,-1,-1,-1,-1,-1,-1,-1,-1],"split_conditions":[9.361099E0,5.806453E-1,5.216568E-3,-1.0389308E-1,8.2482524E-2,1.1154443E-2,6.642716E-2,4.573622E0,1.2470651E-3,1.4261627E-1,2.0056987E-2,-1.0193183E-1,5.147598E-3,-1.8381274E-3,5.147598E-3,3.4498762E-2,6.54002E-2,2.76222E-3,4.1068335E0,1.8377351E-3,1.1154443E-2,3.4819223E-2,1.4559431E-2,7.547119E-2,9.089877E-2,3.4498762E-2,1.4454757E-1,2.8823474E-1,1.05555356E-1,1.0821514E-1,-1.3813032E-1,3.429472E-2,1.0900817E-1,-9.591659E-2,6.150032E-2,-1.2580547E-1,-9.7887956E-2,5.4428786E-2,-9.462147E-2,3.4111235E-2,-1.2308557E-1,1.1188908E-1,5.6854594E-2,-1.0401404E-1,-1.4042674E-1,6.020346E-2,-4.4378623E-2,-2.1776242E-2,5.7724755E-2,1.0165621E-1,7.726708E-2,2.2396078E-2,9.588486E-2],"split_indices":[2,0,1,0,0,0,1,6,3,0,3,0,1,0,1,1,1,3,5,1,0,0,3,0,0,1,0,0,4,1,0,0,0,0,0,0,0,0,0,0,0,0,0,0,0,0,0,0,0,0,0,0,0],"split_type":[0,0,0,0,0,0,0,0,0,0,0,0,0,0,0,0,0,0,0,0,0,0,0,0,0,0,0,0,0,0,0,0,0,0,0,0,0,0,0,0,0,0,0,0,0,0,0,0,0,0,0,0,0],"sum_hessian":[1.2189154E3,2.8764328E2,9.312721E2,2.8269946E2,4.9438324E0,3.7287473E2,5.5839734E2,1.2673709E2,2.4613762E2,3.7368765E2,1.8470972E2,7.01014E1,5.663569E1,1.7665117E0,2.4437111E2,3.0890826E2,6.477937E1,1.1217712E2,7.253259E1,4.5601536E1,1.1034154E1,8.3699E1,1.6067212E2,2.2874042E2,8.016786E1,6.2376408E1,2.4029667E0,2.2611592E0,1.09915955E2,6.793987E1,4.592726E0,2.4974487E1,2.0627048E1,9.814605E0,1.2195488E0,3.469939E1,4.8999607E1,1.8394318E0,1.5883269E2,1.8974997E2,3.8990448E1,2.2439533E1,5.772833E1,4.09231E1,2.1453308E1,1.0096849E0,1.3932818E0,1.0195702E0,1.2415888E0,8.097951E1,2.8936453E1,2.4196117E1,4.374375E1],"tree_param":{"num_deleted":"0","num_feature":"9","num_nodes":"53","size_leaf_vector":"0"}},{"base_weights":[-3.452316E-1,-9.987959E-1,-1.4915901E-1,-1.0340985E-1,8.048725E-2,-7.7170026E-1,2.5155985E-1,-3.6923715E-1,-9.767333E-1,9.041056E-4,7.794081E-1,-1.01439886E-1,3.8581085E-1,-1.722346E-3,-9.841702E-1,2.1807574E-1,-1.1457635E0,6.021359E-1,1.0058959E0,-6.95291E-1,6.641504E-1,-9.387603E-1,-1.145489E-1,5.810171E-2,6.699798E-1,-1.1719E-1,-4.0290484E-1,7.4016434E-1,-1.2701346E0,1.0157379E-1,1.9763023E-2,5.691607E-2,-9.50835E-2,3.4259997E-2,1.0390606E-1,-9.490252E-2,2.226257E-2,3.0566847E-2,-1.19865075E-1,8.118482E-2,1.699805E-2,1.0780139E-2,-6.521075E-2,3.6160726E-2,9.585588E-2,1.5031317E-2,-1.538677E-1],"categories":[],"categories_nodes":[],"categories_segments":[],"categories_sizes":[],"default_left":[0,0,1,0,0,1,0,0,0,0,0,0,1,0,1,0,0,0,1,1,0,1,0,0,0,0,1,0,0,0,0,0,0,0,0,0,0,0,0,0,0,0,0,0,0,0,0],"id":28,"left_children":[1,3,5,-1,-1,7,9,11,13,15,17,-1,19,-1,21,23,25,27,29,31,33,35,-1,37,39,-1,41,43,45,-1,-1,-1,-1,-1,-1,-1,-1,-1,-1,-1,-1,-1,-1,-1,-1,-1,-1],"loss_changes":[1.4573418E2,1.7549164E1,2.1894275E2,0E0,0E0,2.7995834E1,7.0683075E1,5.7671577E1,1.603241E0,9.070237E1,6.300392E0,0E0,1.698319E1,0E0,5.7496643E-1,2.2099314E1,6.5392303E-1,2.6518707E1,3.881607E-1,4.3313913E0,4.9693356E0,2.3731537E0,0E0,7.107434E1,5.534466E0,0E0,5.151288E-1,7.326771E0,2.9640303E0,0E0,0E0,0E0,0E0,0E0,0E0,0E0,0E0,0E0,0E0,0E0,0E0,0E0,0E0,0E0,0E0,0E0,0E0],"parents":[2147483647,0,0,1,1,2,2,5,5,6,6,7,7,8,8,9,9,10,10,12,12,14,14,15,15,16,16,17,17,18,18,19,19,20,20,21,21,23,23,24,24,26,26,27,27,28,28],"right_children":[2,4,6,-1,-1,8,10,12,14,16,18,-1,20,-1,22,24,26,28,30,32,34,36,-1,38,40,-1,42,44,46,-1,-1,-1,-1,-1,-1,-1,-1,-1,-1,-1,-1,-1,-1,-1,-1,-1,-1],"split_conditions":[9.361099E0,6.0503596E-1,5.1764078E-3,-1.0340985E-1,8.048725E-2,1.0921271E-2,6.651813E-2,4.573622E0,1.2470651E-3,1.4456382E-1,2.120028E0,-1.01439886E-1,3.3290853E-5,-1.722346E-3,1.5432232E-3,3.4490284E-2,2.2438798E0,4.1068335E0,4.8723235E0,1.2577201E-4,1.8476424E-3,1.3920122E-3,-1.145489E-1,7.6208666E-2,1.2516752E-1,-1.1719E-1,2.4992816E0,1.09786496E-1,1.0076991E-1,1.0157379E-1,1.9763023E-2,5.691607E-2,-9.50835E-2,3.4259997E-2,1.0390606E-1,-9.490252E-2,2.226257E-2,3.0566847E-2,-1.19865075E-1,8.118482E-2,1.699805E-2,1.0780139E-2,-6.521075E-2,3.6160726E-2,9.585588E-2,1.5031317E-2,-1.538677E-1],"split_indices":[2,0,1,0,0,0,1,6,3,0,4,0,1,0,1,1,4,5,3,0,1,1,0,0,0,0,4,1,4,0,0,0,0,0,0,0,0,0,0,0,0,0,0,0,0,0,0],"split_type":[0,0,0,0,0,0,0,0,0,0,0,0,0,0,0,0,0,0,0,0,0,0,0,0,0,0,0,0,0,0,0,0,0,0,0,0,0,0,0,0,0,0,0,0,0,0,0],"sum_hessian":[1.137413E3,2.6153848E2,8.7587445E2,2.5693625E2,4.602248E0,3.426386E2,5.3323584E2,1.1658757E2,2.2605103E2,3.6222852E2,1.7100731E2,6.268337E1,5.3904205E1,1.7640804E0,2.2428694E2,3.0522974E2,5.699877E1,9.797825E1,7.302906E1,1.0729938E1,4.3174267E1,1.8034155E2,4.3945396E1,2.2626167E2,7.8968056E1,5.4503582E1,2.4951906E0,9.1814156E1,6.164096E0,7.1896904E1,1.1321597E0,1.5976064E0,9.132331E0,2.4271267E1,1.8903E1,1.7894281E2,1.3987362E0,1.8965788E2,3.660379E1,6.102835E1,1.7939707E1,1.0043435E0,1.4908472E0,3.456177E1,5.7252384E1,1.0500658E0,5.1140304E0],"tree_param":{"num_deleted":"0","num_feature":"9","num_nodes":"47","size_leaf_vector":"0"}},{"base_weights":[-3.349429E-1,-9.937262E-1,-1.4373273E-1,-1.0286684E0,8.326966E-2,-5.474969E-1,4.3903726E-1,-1.03234805E-1,-3.9366454E-2,-2.525358E-1,-9.958232E-1,9.3194354E-1,2.1114701E-1,-7.79636E-1,2.7298963E-1,-9.032621E-1,-1.2129838E0,3.9929447E-1,9.962126E-1,-4.2966787E-2,7.7025783E-1,-1.6720091E-1,-1.0671048E0,-9.675552E-2,4.0342978E-1,-4.7297814E-1,-9.714641E-1,-1.3928434E0,-1.0173752E-1,1.0510563E-1,-1.4816095E-1,1.0140595E0,2.8115582E-1,1.3635609E-1,-1.0596823E0,9.273311E-1,-1.4280437E0,-9.856456E-2,6.425037E-2,-1.0028159E-1,-1.4220165E-1,1.792803E-2,8.6344115E-2,-9.274855E-2,2.7611372E-1,-9.864514E-2,-5.033186E-2,-1.16105795E-1,-1.8355797E-1,1.0400335E-1,6.9586E-2,6.4046405E-2,-3.0253975E-2,-1.1248876E-2,5.8897972E-2,-1.2549432E-1,5.5018626E-3,4.5525547E-2,9.60677E-2,-1.5832668E-2,-1.7552829E-1],"categories":[],"categories_nodes":[],"categories_segments":[],"categories_sizes":[],"default_left":[0,0,1,0,0,1,1,0,0,1,1,0,0,1,0,1,0,0,1,0,0,0,1,0,0,0,0,0,0,0,0,1,0,0,0,0,0,0,0,0,0,0,0,0,0,0,0,0,0,0,0,0,0,0,0,0,0,0,0,0,0],"id":29,"left_children":[1,3,5,7,-1,9,11,-1,-1,13,15,17,19,21,23,25,27,29,31,33,35,37,39,-1,41,43,45,47,-1,-1,-1,49,51,53,55,57,59,-1,-1,-1,-1,-1,-1,-1,-1,-1,-1,-1,-1,-1,-1,-1,-1,-1,-1,-1,-1,-1,-1,-1,-1],"loss_changes":[1.3378714E2,1.6109879E1,1.9441469E2,1.4263916E-1,0E0,6.427042E1,3.7803406E1,0E0,0E0,8.210553E1,2.7894592E0,3.253624E0,3.3084797E1,2.5852608E1,2.4465471E1,3.6324463E0,5.125885E-1,1.7681812E1,9.2100525E-1,2.947736E1,2.6442589E1,3.271958E1,8.656769E-1,0E0,1.3799299E1,3.3468014E1,3.413086E-1,5.229454E-1,0E0,0E0,0E0,3.5209656E-2,9.6661866E-1,1.5570262E1,5.3441525E0,6.4094925E-1,1.90133E0,0E0,0E0,0E0,0E0,0E0,0E0,0E0,0E0,0E0,0E0,0E0,0E0,0E0,0E0,0E0,0E0,0E0,0E0,0E0,0E0,0E0,0E0,0E0,0E0],"parents":[2147483647,0,0,1,1,2,2,3,3,5,5,6,6,9,9,10,10,11,11,12,12,13,13,14,14,15,15,16,16,17,17,18,18,19,19,20,20,21,21,22,22,24,24,25,25,26,26,27,27,31,31,32,32,33,33,34,34,35,35,36,36],"right_children":[2,4,6,8,-1,10,12,-1,-1,14,16,18,20,22,24,26,28,30,32,34,36,38,40,-1,42,44,46,48,-1,-1,-1,50,52,54,56,58,60,-1,-1,-1,-1,-1,-1,-1,-1,-1,-1,-1,-1,-1,-1,-1,-1,-1,-1,-1,-1,-1,-1,-1,-1],"split_conditions":[9.729574E0,9.3012404E-1,2.0366345E-2,3.755641E-1,8.326966E-2,4.455414E-2,4.1711774E-2,-1.03234805E-1,-3.9366454E-2,1.8476424E-3,6.776289E-3,2.6189182E-2,9.746296E-2,4.1197813E-3,4.573622E0,1.410337E-2,7.6045446E-2,5.7409078E-2,3.8526258E-3,2.0151849E-1,4.1068335E0,4.573622E0,6.443701E-4,-9.675552E-2,1.1825337E-2,6.776289E-3,9.3012404E-1,1.6781574E-2,-1.0173752E-1,1.0510563E-1,-1.4816095E-1,3.067776E-2,7.6878145E-2,5.191586E-2,9.1927566E-2,1.07967265E-1,2.7855864E-1,-9.856456E-2,6.425037E-2,-1.0028159E-1,-1.4220165E-1,1.792803E-2,8.6344115E-2,-9.274855E-2,2.7611372E-1,-9.864514E-2,-5.033186E-2,-1.16105795E-1,-1.8355797E-1,1.0400335E-1,6.9586E-2,6.4046405E-2,-3.0253975E-2,-1.1248876E-2,5.8897972E-2,-1.2549432E-1,5.5018626E-3,4.5525547E-2,9.60677E-2,-1.5832668E-2,-1.7552829E-1],"split_indices":[2,0,1,0,0,0,4,0,0,1,1,1,1,0,6,3,0,0,3,0,5,6,1,0,1,1,0,1,0,0,0,4,0,1,1,1,0,0,0,0,0,0,0,0,0,0,0,0,0,0,0,0,0,0,0,0,0,0,0,0,0],"split_type":[0,0,0,0,0,0,0,0,0,0,0,0,0,0,0,0,0,0,0,0,0,0,0,0,0,0,0,0,0,0,0,0,0,0,0,0,0,0,0,0,0,0,0,0,0,0,0,0,0,0,0,0,0,0,0,0,0,0,0,0,0],"sum_hessian":[1.0622224E3,2.3800795E2,8.242145E2,2.3396857E2,4.039387E0,4.869195E2,3.3729495E2,2.3199847E2,1.9700919E0,2.9463663E2,1.9228288E2,1.0566391E2,2.3163104E2,1.468565E2,1.477801E2,1.3843617E2,5.3846714E1,1.2153226E1,9.351069E1,1.5988641E2,7.174463E1,4.7417656E1,9.943884E1,1.3449708E1,1.343304E2,2.002625E1,1.1840993E2,2.486401E1,2.8982702E1,9.353346E0,2.79988E0,9.082564E1,2.685048E0,1.3665059E2,2.3235819E1,6.749979E1,4.2448425E0,2.3473495E1,2.394416E1,8.742767E1,1.2011173E1,9.125457E1,4.3075832E1,1.8183977E1,1.8422725E0,1.1366392E2,4.7460093E0,1.8697683E1,6.1663275E0,8.187394E1,8.9517E0,1.6017773E0,1.0832708E0,8.86589E1,4.7991695E1,1.9665266E1,3.5705535E0,5.4201083E0,6.207968E1,1.1738858E0,3.0709565E0],"tree_param":{"num_deleted":"0","num_feature":"9","num_nodes":"61","size_leaf_vector":"0"}},{"base_weights":[-3.247256E-1,-9.888846E-1,-1.3910927E-1,-1.0243642E0,8.172165E-2,-7.364197E-1,2.2627974E-1,-1.02849446E-1,-4.248641E-1,-3.33792E-1,-9.488785E-1,2.2073274E-2,8.21315E-1,-6.0365396E-3,-5.663835E-2,-1.0055516E-1,3.55069E-1,3.2693963E-4,-9.5706147E-1,1.5779488E-1,-1.1333702E0,9.579273E-2,6.2434214E-1,6.002813E-1,-7.201684E-1,-9.705014E-1,-5.4580575E-1,1.146345E0,9.225612E-2,-1.16810136E-1,-3.0369997E-2,7.9991543E-1,-1.4795792E-1,2.8741634E-2,9.9277295E-2,-9.3199365E-2,5.63913E-2,-1.07051395E-1,-9.080532E-2,4.6713416E-2,-8.742599E-2,3.3553272E-2,1.1758112E-1,-1.2365681E-1,1.915984E-2,2.8600607E-2,9.343075E-2],"categories":[],"categories_nodes":[],"categories_segments":[],"categories_sizes":[],"default_left":[0,0,1,0,0,1,0,0,1,0,0,0,1,0,0,0,0,0,0,0,0,0,0,0,0,0,1,0,0,0,0,0,0,0,0,0,0,0,0,0,0,0,0,0,0,0,0],"id":30,"left_children":[1,3,5,7,-1,9,11,-1,13,15,17,19,21,-1,-1,-1,23,-1,25,27,29,-1,31,33,35,37,39,41,43,-1,-1,45,-1,-1,-1,-1,-1,-1,-1,-1,-1,-1,-1,-1,-1,-1,-1],"loss_changes":[1.2248013E2,1.474852E1,1.7008408E2,9.132385E-2,0E0,2.4980408E1,5.8770218E1,0E0,1.290052E-1,4.8339928E1,1.5071411E0,5.682604E1,2.7275162E0,0E0,0E0,0E0,1.4125002E1,0E0,5.28183E-1,2.089439E1,7.429123E-1,0E0,2.0940107E1,4.9745607E0,3.2724242E0,1.7744446E-1,3.1838439E0,8.487892E-2,4.0508583E1,0E0,0E0,3.186985E0,0E0,0E0,0E0,0E0,0E0,0E0,0E0,0E0,0E0,0E0,0E0,0E0,0E0,0E0,0E0],"parents":[2147483647,0,0,1,1,2,2,3,3,5,5,6,6,8,8,9,9,10,10,11,11,12,12,16,16,18,18,19,19,20,20,22,22,23,23,24,24,25,25,26,26,27,27,28,28,31,31],"right_children":[2,4,6,8,-1,10,12,-1,14,16,18,20,22,-1,-1,-1,24,-1,26,28,30,-1,32,34,36,38,40,42,44,-1,-1,46,-1,-1,-1,-1,-1,-1,-1,-1,-1,-1,-1,-1,-1,-1,-1],"split_conditions":[9.361099E0,9.123492E-1,5.193693E-3,3.6354387E-1,8.172165E-2,1.0922345E-2,8.292621E-2,-1.02849446E-1,2.0463242E-1,4.573622E0,1.1850335E-3,1.8112794E-1,2.4715867E-3,-6.0365396E-3,-5.663835E-2,-1.0055516E-1,5.0938204E-3,3.2693963E-4,7.107125E-1,1.6317869E-2,2.2048202E0,9.579273E-2,4.1068335E0,1.8476424E-3,1.0922345E-2,5.0938204E-3,4.0097728E-1,5.4488E-3,7.494818E-3,-1.16810136E-1,-3.0369997E-2,1.0860361E-1,-1.4795792E-1,2.8741634E-2,9.9277295E-2,-9.3199365E-2,5.63913E-2,-1.07051395E-1,-9.080532E-2,4.6713416E-2,-8.742599E-2,3.3553272E-2,1.1758112E-1,-1.2365681E-1,1.915984E-2,2.8600607E-2,9.343075E-2],"split_indices":[2,0,1,0,0,0,1,0,3,6,3,0,3,0,0,0,1,0,0,0,4,0,5,1,0,1,3,3,1,0,0,1,0,0,0,0,0,0,0,0,0,0,0,0,0,0,0],"split_type":[0,0,0,0,0,0,0,0,0,0,0,0,0,0,0,0,0,0,0,0,0,0,0,0,0,0,0,0,0,0,0,0,0,0,0,0,0,0,0,0,0,0,0,0,0,0,0],"sum_hessian":[9.936376E2,2.1609486E2,7.775427E2,2.123561E2,3.7387648E0,2.9472806E2,4.8281467E2,2.101924E2,2.1637022E0,1.0269096E2,1.9203708E2,3.602275E2,1.2258715E2,1.0040956E0,1.1596066E0,5.1758083E1,5.093288E1,1.6414577E0,1.9039563E2,3.2313464E2,3.7092865E1,7.010319E1,5.2483963E1,4.1834152E1,9.098727E0,1.8305354E2,7.342084E0,1.906579E1,3.0406885E2,3.521097E1,1.8818929E0,4.9013557E1,3.4704077E0,2.4242296E1,1.7591856E1,8.045686E0,1.0530415E0,6.415887E1,1.1889468E2,1.6944001E0,5.6476836E0,1.1029621E0,1.7962828E1,2.0354536E1,2.8371432E2,1.0808907E1,3.820465E1],"tree_param":{"num_deleted":"0","num_feature":"9","num_nodes":"47","size_leaf_vector":"0"}},{"base_weights":[-3.1280458E-1,-9.84333E-1,-1.3316134E-1,-1.0215309E0,7.5394064E-2,-5.153082E-1,3.9969778E-1,-1.0249126E-1,-3.8922984E-2,-2.2599773E-1,-9.8021847E-1,9.1170436E-1,1.7912956E-1,-1.01155676E-1,9.819922E-2,-8.372484E-1,-1.1524017E0,3.97815E-1,9.857424E-1,-6.2191226E-2,6.787754E-1,-3.102942E-1,4.730203E-1,1.8216364E-1,-9.425062E-1,-1.0613395E-1,-1.4737945E0,1.0353769E-1,-1.3189487E-1,1.0029352E0,2.7964044E-1,1.5040153E-1,-1.1732658E0,8.28608E-1,-1.3230644E0,3.298795E-2,-1.07967965E-1,1.0742515E-1,3.0297345E-2,-8.861722E-2,2.4010395E-1,-9.63415E-2,-3.3996847E-2,-1.8874502E-1,-9.55296E-2,1.03116095E-1,6.752729E-2,-2.7708262E-2,6.561324E-2,-8.604368E-3,6.447187E-2,-1.2188039E-1,-1.6145263E-2,3.9272252E-2,9.376474E-2,-1.0396532E-2,-1.6062254E-1],"categories":[],"categories_nodes":[],"categories_segments":[],"categories_sizes":[],"default_left":[0,0,1,0,0,1,1,0,0,0,1,0,0,0,1,1,0,0,1,0,0,1,0,0,0,0,0,0,0,1,1,0,1,0,0,0,0,0,0,0,0,0,0,0,0,0,0,0,0,0,0,0,0,0,0,0,0],"id":31,"left_children":[1,3,5,7,-1,9,11,-1,-1,13,15,17,19,-1,21,23,25,27,29,31,33,35,37,39,41,-1,43,-1,-1,45,47,49,51,53,55,-1,-1,-1,-1,-1,-1,-1,-1,-1,-1,-1,-1,-1,-1,-1,-1,-1,-1,-1,-1,-1,-1],"loss_changes":[1.1278444E2,1.3533493E1,1.5081389E2,1.5213013E-2,0E0,5.7770332E1,3.4784576E1,0E0,0E0,6.811528E1,3.0991058E0,3.1435776E0,2.62708E1,0E0,2.9231998E1,1.0242027E1,5.4989624E-1,1.6009796E1,6.9740295E-1,3.504045E1,2.2371021E1,4.54242E1,9.843E0,2.4935705E1,7.4622345E-1,0E0,1.0655823E0,0E0,0E0,2.7366638E-2,8.7376094E-1,1.4639653E1,9.007263E-1,2.797432E0,1.6709709E0,0E0,0E0,0E0,0E0,0E0,0E0,0E0,0E0,0E0,0E0,0E0,0E0,0E0,0E0,0E0,0E0,0E0,0E0,0E0,0E0,0E0,0E0],"parents":[2147483647,0,0,1,1,2,2,3,3,5,5,6,6,9,9,10,10,11,11,12,12,14,14,15,15,16,16,17,17,18,18,19,19,20,20,21,21,22,22,23,23,24,24,26,26,29,29,30,30,31,31,32,32,33,33,34,34],"right_children":[2,4,6,8,-1,10,12,-1,-1,14,16,18,20,-1,22,24,26,28,30,32,34,36,38,40,42,-1,44,-1,-1,46,48,50,52,54,56,-1,-1,-1,-1,-1,-1,-1,-1,-1,-1,-1,-1,-1,-1,-1,-1,-1,-1,-1,-1,-1,-1],"split_conditions":[9.361099E0,5.863499E-1,2.0250762E-2,3.718542E-1,7.5394064E-2,4.4700295E-2,4.1138448E-2,-1.0249126E-1,-3.8922984E-2,4.573622E0,1.447832E-3,2.6526757E-2,8.270069E-2,-1.01155676E-1,5.171606E-3,1.4407596E-2,1.6988898E-2,5.8148872E-2,3.8441133E-3,1.8035074E-1,4.1068335E0,1.1241518E-2,1.7129837E-2,1.3188748E-3,9.6918017E-1,-1.0613395E-1,7.506852E-2,1.0353769E-1,-1.3189487E-1,3.067776E-2,3.067776E-2,5.085789E-2,2.3866763E0,1.0860361E-1,2.5432602E-1,3.298795E-2,-1.07967965E-1,1.0742515E-1,3.0297345E-2,-8.861722E-2,2.4010395E-1,-9.63415E-2,-3.3996847E-2,-1.8874502E-1,-9.55296E-2,1.03116095E-1,6.752729E-2,-2.7708262E-2,6.561324E-2,-8.604368E-3,6.447187E-2,-1.2188039E-1,-1.6145263E-2,3.9272252E-2,9.376474E-2,-1.0396532E-2,-1.6062254E-1],"split_indices":[2,0,1,0,0,0,4,0,0,6,1,1,1,0,1,3,1,0,3,0,5,0,0,1,0,0,0,0,0,4,4,1,3,1,0,0,0,0,0,0,0,0,0,0,0,0,0,0,0,0,0,0,0,0,0,0,0],"split_type":[0,0,0,0,0,0,0,0,0,0,0,0,0,0,0,0,0,0,0,0,0,0,0,0,0,0,0,0,0,0,0,0,0,0,0,0,0,0,0,0,0,0,0,0,0,0,0,0,0,0,0,0,0,0,0,0,0],"sum_hessian":[9.3500525E2,1.9639127E2,7.3861395E2,1.9268037E2,3.7108998E0,4.3015536E2,3.084586E2,1.9103773E2,1.6426344E0,2.6606873E2,1.6408664E2,9.1929214E1,2.1652939E2,7.710822E1,1.889605E2,